svm_type nu_svr
kernel_type linear
nr_class 2
total_sv 1222
rho -0.499555
SV
1 1:0.63093 2:0.631742 3:0.665946 4:0.44966 5:0.217759 6:0.223291 7:1 8:1 9:1 10:1 11:1 12:1 13:0.7344 14:0.292458 15:0.31011 16:0.97864 17:0.922678 18:1 19:1 
-1 1:0.63093 2:0.654513 3:0.686602 4:0.55034 5:0.293018 6:0.299418 7:1 8:1 9:1 10:1 11:1 12:1 13:0.608486 14:0.346655 15:0.350492 16:0.60809 17:0.97941 18:0.850336 19:0.849518 
-1 1:0.63093 2:0.616633 3:0.652241 4:0.55034 5:0.236256 6:0.24245 7:1 8:1 9:1 10:1 11:1 12:1 13:0.608486 14:0.267926 15:0.273969 16:0.60809 17:0.924167 18:0.813862 19:0.818844 
-1 1:1 2:0.307172 3:0.425853 4:0.494915 5:0.141752 6:0.20105 7:1 8:1 9:1 10:1 11:1 12:1 13:0.555118 14:0.160894 15:0.280216 16:0.596783 17:0.834402 18:0.83649 19:0.801295 
-1 1:0.63093 2:0.264676 3:0.332973 4:0.290489 5:0.100266 6:0.126934 7:1 8:1 9:1 10:1 11:1 12:1 13:0.345225 14:0.134039 15:0.185116 16:0.541569 17:0.79063 18:0.77863 19:0.718985 
-1 1:0.63093 2:0.264676 3:0.332973 4:0.380182 5:0.108028 6:0.137334 7:1 8:1 9:1 10:1 11:1 12:1 13:0.440051 14:0.14439 15:0.200246 16:0.569163 17:0.803502 18:0.789535 19:0.718985 
-1 1:0.63093 2:0.264676 3:0.332973 4:0.290489 5:0.0983626 6:0.124576 7:1 8:1 9:1 10:1 11:1 12:1 13:0.345225 14:0.1315 15:0.181684 16:0.541569 17:0.787326 18:0.776035 19:0.718985 
1 1:0.63093 2:0.307172 3:0.371522 4:0.329329 5:0.0936999 6:0.112153 7:1 8:1 9:1 10:1 11:1 12:1 13:0.386856 14:0.1064 15:0.142173 16:0.554374 17:0.762113 18:0.748025 19:0.717581 
1 1:0.63093 2:0.409562 3:0.464402 4:1 5:0.122443 6:0.133364 7:1 8:1 9:1 10:1 11:1 12:1 13:1 14:0.131526 15:0.150752 16:0.674692 17:0.761751 18:0.729527 19:0.704217 
-1 1:0.63093 2:0.264676 3:0.332973 4:0.55034 5:0.243761 6:0.307262 7:1 8:1 9:1 10:1 11:1 12:1 13:0.608486 14:0.286236 15:0.412172 16:0.60809 17:0.944556 18:0.901381 19:0.699715 
1 1:0.63093 2:0.520908 3:0.565406 4:0.709511 5:0.166257 6:0.170441 7:1 8:1 9:1 10:1 11:1 12:1 13:0.754795 14:0.173092 15:0.177919 16:0.635725 17:0.756245 18:0.705785 19:0.666922 
1 1:0.63093 2:0.492228 3:0.53939 4:0.709511 5:0.051766 6:0.0557329 7:1 8:1 9:1 10:1 11:1 12:1 13:0.754795 14:0.0609071 15:0.0672167 16:0.635725 17:0.674511 18:0.637504 19:0.659791 
-1 1:0.63093 2:0.340134 3:0.401423 4:1 5:0.0579339 6:0.0673369 7:1 8:1 9:1 10:1 11:1 12:1 13:1 14:0.0643952 15:0.0819319 16:0.674692 17:0.664965 18:0.665101 19:0.652606 
-1 1:0.63093 2:0.367066 3:0.425853 4:0.329329 5:0.0546414 6:0.05768 7:1 8:1 9:1 10:1 11:1 12:1 13:0.569004 14:0.081921 15:0.0907605 16:0.946391 17:0.49904 18:0.728146 19:0.645781 
1 1:0.63093 2:0.400029 3:0.455754 4:0.55034 5:0.0218506 6:0.0247057 7:1 8:1 9:1 10:1 11:1 12:1 13:0.861394 14:0.0257171 15:0.0351539 16:1 17:0.528773 18:0.729544 19:0.623146 
-1 1:0.63093 2:0.625455 3:0.660243 4:0.55034 5:0.110265 6:0.111291 7:1 8:1 9:1 10:1 11:1 12:1 13:0.608486 14:0.116204 15:0.115614 16:0.60809 17:0.71243 18:0.647267 19:0.622258 
-1 1:0.63093 2:0.618889 3:0.654286 4:0.709511 5:0.1899 6:0.189605 7:1 8:1 9:1 10:1 11:1 12:1 13:0.754795 14:0.194968 15:0.190151 16:0.635725 17:0.725113 18:0.664685 19:0.600275 
-1 1:0.63093 2:0.697009 3:0.725151 4:0.259851 5:0.0476982 6:0.0484039 7:1 8:1 9:1 10:1 11:1 12:1 13:0.311737 14:0.055017 15:0.0549082 16:0.530279 17:0.652884 18:0.582686 19:0.58519 
1 1:0.63093 2:0.631742 3:0.665946 4:0.709511 5:0.090908 6:0.0916605 7:1 8:1 9:1 10:1 11:1 12:1 13:0.754795 14:0.0956766 15:0.094954 16:0.635725 17:0.675763 18:0.616948 19:0.583028 
-0.6651107732435931 1:0.63093 2:0.354213 3:0.414194 4:0.44966 5:0.0356309 6:0.0379769 7:1 8:1 9:1 10:1 11:1 12:1 13:0.7344 14:0.053462 15:0.0603307 16:0.97864 17:0.461453 18:0.692734 19:0.582074 
-1 1:0.63093 2:0.571847 3:0.611614 4:0.380182 5:0.123398 6:0.124422 7:1 8:1 9:1 10:1 11:1 12:1 13:0.440051 14:0.127494 15:0.126924 16:0.569163 17:0.676439 18:0.633301 19:0.577896 
1 1:0.63093 2:1 3:1 4:0.709511 5:0.0938775 6:0.0922289 7:1 8:1 9:1 10:1 11:1 12:1 13:0.754795 14:0.102196 15:0.0961542 16:0.635725 17:0.730588 18:0.594768 19:0.573058 
1 1:0 2:0.674238 3:0.611614 4:0 5:0.186093 6:0.17979 7:1 8:1 9:1 10:1 11:1 12:1 13:0 14:0.243384 15:0.222416 16:0 17:0.9036 18:0.479661 19:0.555403 
1 1:0 2:0.694347 3:0.629856 4:0 5:0.168606 6:0.163471 7:1 8:1 9:1 10:1 11:1 12:1 13:0 14:0.213773 15:0.196044 16:0 17:0.890198 18:0.472873 19:0.554223 
-1 1:0 2:0.612017 3:0.555172 4:0 5:0.246595 6:0.237875 7:1 8:1 9:1 10:1 11:1 12:1 13:0 14:0.300805 15:0.274466 16:0 17:0.955168 18:0.506898 19:0.552319 
1 1:0 2:0.574893 3:0.521497 4:0 5:0.300454 6:0.289123 7:1 8:1 9:1 10:1 11:1 12:1 13:0 14:0.376398 15:0.34261 16:0 17:0.991874 18:0.52616 19:0.551928 
1 1:0 2:0.779674 3:0.707258 4:0 5:0.115958 6:0.112468 7:1 8:1 9:1 10:1 11:1 12:1 13:0 14:0.145681 15:0.133648 16:0 17:0.825009 18:0.438291 19:0.545432 
-0.7797369146414317 1:0 2:0.666336 3:0.604447 4:0 5:0.180346 6:0.174693 7:1 8:1 9:1 10:1 11:1 12:1 13:0 14:0.211909 15:0.194156 16:0 17:0.89156 18:0.473511 19:0.543721 
-1 1:1 2:0.539963 3:0.6847 4:0.899321 5:0.299448 6:0.302368 7:1 8:1 9:1 10:1 11:1 12:1 13:1 14:0.291434 15:0.293768 16:1 17:0.816263 18:1 19:1 
-1 1:0.5 2:0.878462 3:0.890511 4:0.709511 5:0.853663 6:0.729789 7:1 8:1 9:1 10:1 11:1 12:1 13:0.713315 14:0.820215 15:0.589472 16:0.516795 17:1 18:0.738554 19:0.726744 
-1 1:0.5 2:0.600765 3:0.640343 4:0.259851 5:0.4314 6:0.381705 7:1 8:1 9:1 10:1 11:1 12:1 13:0.317786 14:0.429791 15:0.337043 16:0.477637 17:0.854605 18:0.70561 19:0.720682 
-1 1:0.5 2:0.600765 3:0.640343 4:0.55034 5:0.760859 6:0.675186 7:1 8:1 9:1 10:1 11:1 12:1 13:0.576957 14:0.726416 15:0.568644 16:0.495983 17:0.960709 18:0.752867 19:0.719213 
-1 1:0.5 2:0.568907 3:0.611643 4:0.55034 5:0.671342 6:0.60321 7:1 8:1 9:1 10:1 11:1 12:1 13:0.576957 14:0.64347 15:0.516478 16:0.495983 17:0.94731 18:0.748613 19:0.715511 
-1 1:0.5 2:0.458866 3:0.51251 4:0.55034 5:0.376798 6:0.355046 7:1 8:1 9:1 10:1 11:1 12:1 13:0.610618 14:0.37405 15:0.332534 16:0.536303 17:0.841994 18:0.720341 19:0.71321 
1 1:0.5 2:0.903918 3:0.913443 4:0.55034 5:0.647612 6:0.551913 7:1 8:1 9:1 10:1 11:1 12:1 13:0.576957 14:0.621051 15:0.443255 16:0.495983 17:0.941579 18:0.696822 19:0.695382 
1 1:0.5 2:0.394495 3:0.454521 4:1 5:0.208788 6:0.207656 7:1 8:1 9:1 10:1 11:1 12:1 13:0.986866 14:0.202579 15:0.200443 16:0.586461 17:0.7467 18:0.668862 19:0.686216 
1 1:0.5 2:0.614579 3:0.652787 4:0.55034 5:0.29525 6:0.26493 7:1 8:1 9:1 10:1 11:1 12:1 13:0.576957 14:0.29041 15:0.230173 16:0.495983 17:0.812341 18:0.652892 19:0.683684 
-1 1:0.5 2:0.440167 3:0.495665 4:0.55034 5:0.328465 6:0.305327 7:1 8:1 9:1 10:1 11:1 12:1 13:0.610618 14:0.329934 15:0.28415 16:0.536303 17:0.760866 18:0.674077 19:0.676384 
-1 1:0.5 2:0.523236 3:0.570499 4:1 5:0.326794 6:0.298199 7:1 8:1 9:1 10:1 11:1 12:1 13:0.940371 14:0.311882 15:0.256547 16:0.546134 17:0.79284 18:0.656254 19:0.671373 
-1 1:0.5 2:0.517244 3:0.565101 4:1 5:0.440898 6:0.3939 7:1 8:1 9:1 10:1 11:1 12:1 13:0.986866 14:0.443927 15:0.351 16:0.586461 17:0.776999 18:0.673861 19:0.671247 
-1 1:0.5 2:0.394495 3:0.454521 4:0.709511 5:0.321466 6:0.318321 7:1 8:1 9:1 10:1 11:1 12:1 13:0.713315 14:0.311754 15:0.299973 16:0.516795 17:0.826853 18:0.698204 19:0.670665 
1 1:0.5 2:0.568907 3:0.611643 4:0.55034 5:0.269206 6:0.243263 7:1 8:1 9:1 10:1 11:1 12:1 13:0.576957 14:0.258514 15:0.208589 16:0.495983 17:0.77639 18:0.636983 19:0.664935 
0.4571209441463639 1:0.5 2:0.969884 3:0.972869 4:0.55034 5:0.478373 6:0.406728 7:1 8:1 9:1 10:1 11:1 12:1 13:0.576957 14:0.470178 15:0.333067 16:0.495983 17:0.90232 18:0.66192 19:0.662944 
1 1:0.5 2:0.650004 3:0.6847 4:0.55034 5:0.366247 6:0.321386 7:1 8:1 9:1 10:1 11:1 12:1 13:0.576957 14:0.348784 15:0.265181 16:0.495983 17:0.805289 18:0.644514 19:0.662873 
-1 1:0.5 2:0.418968 3:0.476567 4:0.709511 5:0.244975 6:0.231875 7:1 8:1 9:1 10:1 11:1 12:1 13:0.752365 14:0.245921 15:0.219044 16:0.55712 17:0.717138 18:0.648655 19:0.659153 
-1 1:0.5 2:0.523236 3:0.570499 4:0.44966 5:0.283318 6:0.2577 7:1 8:1 9:1 10:1 11:1 12:1 13:0.48521 14:0.270451 15:0.221744 16:0.479843 17:0.766352 18:0.638413 19:0.658364 
-1 1:0.5 2:0.550209 3:0.594798 4:1 5:0.43456 6:0.383224 7:1 8:1 9:1 10:1 11:1 12:1 13:0.986866 14:0.437998 15:0.336742 16:0.586461 17:0.757751 18:0.656406 19:0.654057 
-1 1:0.5 2:0.559833 3:0.603468 4:1 5:0.453282 6:0.398367 7:1 8:1 9:1 10:1 11:1 12:1 13:0.986866 14:0.456905 15:0.348717 16:0.586461 17:0.760549 18:0.656892 19:0.653152 
-1 1:0.5 2:0.418968 3:0.476567 4:0.709511 5:0.354166 6:0.334637 7:1 8:1 9:1 10:1 11:1 12:1 13:0.713315 14:0.33636 15:0.29764 16:0.516795 17:0.783526 18:0.669734 19:0.652072 
-1 1:0.5 2:1 3:1 4:0.709511 5:0.470894 6:0.399424 7:1 8:1 9:1 10:1 11:1 12:1 13:0.713315 14:0.454232 15:0.320192 16:0.516795 17:0.89208 18:0.651297 19:0.648138 
-1 1:0.5 2:0.490724 3:0.54121 4:0.44966 5:0.302675 6:0.273099 7:1 8:1 9:1 10:1 11:1 12:1 13:0.51479 14:0.304823 15:0.246773 16:0.520157 17:0.721655 18:0.640648 19:0.648064 
-1 1:0.5 2:0.568907 3:0.611643 4:0.709511 5:0.228139 6:0.206452 7:1 8:1 9:1 10:1 11:1 12:1 13:0.713315 14:0.219121 15:0.177051 16:0.516795 17:0.74573 18:0.616957 19:0.648043 
-1 1:0.5 2:0.394495 3:0.454521 4:0.55034 5:0.33802 6:0.325046 7:1 8:1 9:1 10:1 11:1 12:1 13:0.576957 14:0.321691 15:0.295064 16:0.495983 17:0.786269 18:0.674956 19:0.647585 
-1 1:0.5 2:0.365551 3:0.428446 4:0.709511 5:0.342126 6:0.338677 7:1 8:1 9:1 10:1 11:1 12:1 13:0.713315 14:0.326488 15:0.315651 16:0.516795 17:0.801364 18:0.689622 19:0.641209 
-1 1:0.5 2:0.284454 3:0.355388 4:0.380182 5:0.451692 6:0.4829 7:1 8:1 9:1 10:1 11:1 12:1 13:0.445385 14:0.446663 15:0.513698 16:0.506966 17:0.883566 18:0.77733 19:0.641202 
-1 1:0.5 2:0.633278 3:0.669632 4:0.709511 5:0.589888 6:0.507476 7:1 8:1 9:1 10:1 11:1 12:1 13:0.752365 14:0.594714 15:0.433799 16:0.55712 17:0.770878 18:0.653285 19:0.638244 
-1 1:0.5 2:0.348824 3:0.413377 4:1 5:0.119577 6:0.123993 7:1 8:1 9:1 10:1 11:1 12:1 13:0.986866 14:0.11697 15:0.124767 16:0.586461 17:0.648141 18:0.612167 19:0.637068 
-1 1:0.5 2:0.614579 3:0.652787 4:0.709511 5:0.346193 6:0.30411 7:1 8:1 9:1 10:1 11:1 12:1 13:0.713315 14:0.32811 15:0.249873 16:0.516795 17:0.764431 18:0.624496 19:0.636746 
-0.8763080059291103 1:0.5 2:0.785648 3:0.806898 4:1 5:0.701783 6:0.595128 7:1 8:1 9:1 10:1 11:1 12:1 13:0.986866 14:0.706585 15:0.498528 16:0.586461 17:0.812136 18:0.655082 19:0.63619 
-1 1:0.5 2:0.330125 3:0.396532 4:0.709511 5:0.407453 6:0.418448 7:1 8:1 9:1 10:1 11:1 12:1 13:0.713315 14:0.405442 15:0.414093 16:0.516795 17:0.848908 18:0.72624 19:0.635899 
1 1:0.5 2:0.859135 3:0.873099 4:0.709511 5:0.282282 6:0.242819 7:1 8:1 9:1 10:1 11:1 12:1 13:0.713315 14:0.276675 15:0.200728 16:0.516795 17:0.806033 18:0.613867 19:0.632765 
-1 1:0.5 2:0.330125 3:0.396532 4:0.709511 5:0.25584 6:0.263915 7:1 8:1 9:1 10:1 11:1 12:1 13:0.713315 14:0.245247 15:0.25503 16:0.516795 17:0.761835 18:0.669593 19:0.631432 
-1 1:0.5 2:0.394495 3:0.454521 4:0.214596 5:0.141508 6:0.139415 7:1 8:1 9:1 10:1 11:1 12:1 13:0.249904 14:0.137341 15:0.131492 16:0.42286 17:0.675086 18:0.597563 19:0.626991 
-1 1:0.5 2:0.738847 3:0.764736 4:0.55034 5:0.235607 6:0.205327 7:1 8:1 9:1 10:1 11:1 12:1 13:0.576957 14:0.226779 15:0.169462 16:0.495983 17:0.756877 18:0.598693 19:0.624921 
-0.9764807147087007 1:0.5 2:0.418968 3:0.476567 4:1 5:0.15389 6:0.146008 7:1 8:1 9:1 10:1 11:1 12:1 13:0.986866 14:0.154594 15:0.138005 16:0.586461 17:0.633361 18:0.593218 19:0.610859 
-1 1:0.5 2:0.539963 3:0.585568 4:0.709511 5:0.257552 6:0.228005 7:1 8:1 9:1 10:1 11:1 12:1 13:0.752365 14:0.259926 15:0.201426 16:0.55712 17:0.669004 18:0.598693 19:0.601553 
-1 1:0.5 2:0.793341 3:0.813827 4:1 5:0.359909 6:0.306751 7:1 8:1 9:1 10:1 11:1 12:1 13:0.986866 14:0.362638 15:0.258577 16:0.586461 17:0.740027 18:0.604468 19:0.594388 
-1 1:0.5 2:0.284454 3:0.355388 4:0.44966 5:0.106665 6:0.117404 7:1 8:1 9:1 10:1 11:1 12:1 13:0.48521 14:0.103 15:0.11954 16:0.479843 17:0.61666 18:0.582068 19:0.591175 
-1 1:0.5 2:0.581615 3:0.62309 4:0.55034 5:0.191286 6:0.17006 7:1 8:1 9:1 10:1 11:1 12:1 13:0.576957 14:0.181839 15:0.141894 16:0.495983 17:0.670256 18:0.566909 19:0.584555 
-1 1:0.5 2:0.440167 3:0.495665 4:0.709511 5:0.163412 6:0.152511 7:1 8:1 9:1 10:1 11:1 12:1 13:0.713315 14:0.15514 15:0.133591 16:0.516795 17:0.631903 18:0.566611 19:0.579107 
-1 1:0.5 2:0.429921 3:0.486435 4:0.55034 5:0.0973191 6:0.0941645 7:1 8:1 9:1 10:1 11:1 12:1 13:0.576957 14:0.0939789 15:0.0863997 16:0.495983 17:0.600079 18:0.543167 19:0.57346 
1 1:0.5 2:0.813463 3:0.831955 4:1 5:0.240066 6:0.205747 7:1 8:1 9:1 10:1 11:1 12:1 13:0.940371 14:0.228397 15:0.164637 16:0.546134 17:0.718358 18:0.563562 19:0.568842 
-1 1:0.5 2:0.627286 3:0.664234 4:0.55034 5:0.151599 6:0.13425 7:1 8:1 9:1 10:1 11:1 12:1 13:0.576957 14:0.144814 15:0.111946 16:0.495983 17:0.651476 18:0.546376 19:0.56678 
-1 1:0.5 2:0.394495 3:0.454521 4:0.55034 5:0.120408 6:0.116441 7:1 8:1 9:1 10:1 11:1 12:1 13:0.576957 14:0.114729 15:0.105804 16:0.495983 17:0.597558 18:0.550754 19:0.566636 
-1 1:0.5 2:0.749093 3:0.773966 4:0.380182 5:0.641151 6:0.541214 7:1 8:1 9:1 10:1 11:1 12:1 13:0.445385 14:0.646878 15:0.452628 16:0.506966 17:0.728061 18:0.608102 19:0.565858 
-1 1:1 2:0.425146 3:0.499148 4:0.830075 5:0.412589 6:0.445961 7:1 8:1 9:1 10:1 11:1 12:1 13:1 14:0.401413 15:0.457288 16:1 17:0.825037 18:0.908441 19:1 
1 1:1 2:0.393161 3:0.47128 4:0.643856 5:0.490962 6:0.541129 7:1 8:1 9:1 10:1 11:1 12:1 13:0.818 14:0.458911 15:0.549271 16:0.968553 17:0.846758 18:0.936565 19:0.995042 
1 1:1 2:0.378929 3:0.458881 4:0.830075 5:0.440036 6:0.493711 7:1 8:1 9:1 10:1 11:1 12:1 13:1 14:0.426974 15:0.520849 16:1 17:0.834551 18:0.930804 19:0.993679 
1 1:1 2:0.264842 3:0.35948 4:0.643856 5:0.582553 6:0.748921 7:1 8:1 9:1 10:1 11:1 12:1 13:0.818 14:0.564098 15:0.872072 16:0.968553 17:0.872108 18:1 19:0.945136 
1 1:1 2:1 3:1 4:0.643856 5:0.204402 6:0.197204 7:1 8:1 9:1 10:1 11:1 12:1 13:0.818 14:0.192208 15:0.175996 16:0.968553 17:0.987804 18:0.83677 19:0.811106 
1 1:1 2:0.832342 3:0.853925 4:0.526069 5:0.524789 6:0.503304 7:1 8:1 9:1 10:1 11:1 12:1 13:0.693622 14:0.496296 15:0.449175 16:0.944154 17:0.859765 18:0.822864 19:0.789775 
1 1:0.5 2:0.405715 3:0.417852 4:0.321928 5:0.459527 6:0.464715 7:1 8:1 9:1 10:1 11:1 12:1 13:0.41863 14:0.427546 15:0.436778 16:0.500745 17:0.835239 18:0.647804 19:0.718886 
1 1:0.5 2:0.61209 3:0.597661 4:0.584963 5:0.552627 6:0.533757 7:1 8:1 9:1 10:1 11:1 12:1 13:0.661231 14:0.542577 15:0.498236 16:0.538597 17:0.857011 18:0.631802 19:0.706032 
1 1:0.5 2:0.324486 3:0.34708 4:0.415037 5:0.363931 6:0.382593 7:1 8:1 9:1 10:1 11:1 12:1 13:0.511007 14:0.361301 15:0.39288 16:0.516462 17:0.793058 18:0.63478 19:0.689652 
-1 1:0.5 2:0.553466 3:0.546583 4:0.321928 5:0.348556 6:0.340156 7:1 8:1 9:1 10:1 11:1 12:1 13:0.41863 14:0.336624 15:0.316578 16:0.500745 17:0.805137 18:0.606746 19:0.689398 
1 1:0.5 2:0.425146 3:0.434782 4:0.415037 5:0.458376 6:0.452481 7:1 8:1 9:1 10:1 11:1 12:1 13:0.511007 14:0.463162 15:0.444278 16:0.516462 17:0.778882 18:0.611184 19:0.684758 
-0.575182330672229 1:0.5 2:0.430909 3:0.439803 4:0.321928 5:0.947414 6:0.927212 7:1 8:1 9:1 10:1 11:1 12:1 13:0.39937 14:0.839306 15:0.801777 16:0.467808 17:0.873347 18:0.653216 19:0.680309 
1 1:0.5 2:0.319286 3:0.342549 4:0.415037 5:0.18072 6:0.193581 7:1 8:1 9:1 10:1 11:1 12:1 13:0.511007 14:0.175249 15:0.197868 16:0.516462 17:0.717317 18:0.586637 19:0.673648 
0.5245689227367398 1:0.5 2:0.658887 3:0.638434 4:0.415037 5:0.175811 6:0.170492 7:1 8:1 9:1 10:1 11:1 12:1 13:0.511007 14:0.173048 15:0.160066 16:0.516462 17:0.881913 18:0.613216 19:0.669804 
1 1:0.5 2:0.264842 3:0.295114 4:0.584963 5:0.478239 6:0.534707 7:1 8:1 9:1 10:1 11:1 12:1 13:0.661231 14:0.463787 15:0.568428 16:0.538597 17:0.845685 18:0.678017 19:0.666532 
-1 1:0.5 2:0.319286 3:0.342549 4:0.584963 5:0.416646 6:0.429649 7:1 8:1 9:1 10:1 11:1 12:1 13:0.661231 14:0.421712 15:0.439677 16:0.538597 17:0.76318 18:0.61991 19:0.664043 
1 1:0.5 2:0.338717 3:0.35948 4:0.584963 5:0.362791 6:0.36886 7:1 8:1 9:1 10:1 11:1 12:1 13:0.661231 14:0.368504 15:0.373564 16:0.538597 17:0.734102 18:0.598515 19:0.660075 
1 1:0.5 2:0.514602 3:0.512723 4:0.584963 5:0.343585 6:0.334535 7:1 8:1 9:1 10:1 11:1 12:1 13:0.661231 14:0.346362 15:0.322619 16:0.538597 17:0.757555 18:0.583076 19:0.656791 
-1 1:0.5 2:0.264842 3:0.295114 4:0.321928 5:0.62823 6:0.690492 7:1 8:1 9:1 10:1 11:1 12:1 13:0.39937 14:0.607929 15:0.718946 16:0.467808 17:0.88223 18:0.682811 19:0.647703 
1 1:0.5 2:0.583235 3:0.57252 4:0.584963 5:0.236631 6:0.2302 7:1 8:1 9:1 10:1 11:1 12:1 13:0.661231 14:0.228593 15:0.21308 16:0.538597 17:0.753778 18:0.569828 19:0.640716 
-1 1:0.5 2:0.338717 3:0.35948 4:0.584963 5:0.443405 6:0.45054 7:1 8:1 9:1 10:1 11:1 12:1 13:0.635541 14:0.394795 15:0.404019 16:0.505699 17:0.760168 18:0.598214 19:0.634496 
1 1:0.5 2:0.49293 3:0.49384 4:0.584963 5:0.205577 6:0.202503 7:1 8:1 9:1 10:1 11:1 12:1 13:0.661231 14:0.205056 15:0.195568 16:0.538597 17:0.71491 18:0.558429 19:0.634028 
1 1:0.5 2:0.664464 3:0.643293 4:0.415037 5:0.291658 6:0.280071 7:1 8:1 9:1 10:1 11:1 12:1 13:0.511007 14:0.28794 15:0.26103 16:0.516462 17:0.770683 18:0.569297 19:0.623759 
1 1:0.5 2:0.338717 3:0.35948 4:0.415037 5:0.122893 6:0.128241 7:1 8:1 9:1 10:1 11:1 12:1 13:0.511007 14:0.123068 15:0.131217 16:0.516462 17:0.643765 18:0.537418 19:0.611705 
-1 1:0.5 2:0.390463 3:0.404564 4:0.584963 5:0.172063 6:0.173304 7:1 8:1 9:1 10:1 11:1 12:1 13:0.641293 14:0.163868 15:0.163207 16:0.512937 17:0.698695 18:0.544623 19:0.603566 
1 1:0.5 2:0.338717 3:0.35948 4:0.263034 5:0.170167 6:0.172856 7:1 8:1 9:1 10:1 11:1 12:1 13:0.35537 14:0.173695 15:0.175778 16:0.488549 17:0.634339 18:0.534383 19:0.590354 
1 1:0.5 2:0.618068 3:0.602869 4:0.415037 5:0.144872 6:0.139952 7:1 8:1 9:1 10:1 11:1 12:1 13:0.511007 14:0.147098 15:0.134741 16:0.516462 17:0.785107 18:0.562423 19:0.579928 
-1 1:0.5 2:0.486469 3:0.488211 4:0.263034 5:0.143183 6:0.141226 7:1 8:1 9:1 10:1 11:1 12:1 13:0.338252 14:0.131888 15:0.126401 16:0.455605 17:0.668686 18:0.512682 19:0.575539 
1 1:0.5 2:0.891986 3:0.841525 4:0.584963 5:0.369609 6:0.350346 7:1 8:1 9:1 10:1 11:1 12:1 13:0.661231 14:0.361372 15:0.318708 16:0.538597 17:0.808229 18:0.562184 19:0.56967 
-1 1:0 2:0.529683 3:0.461497 4:0 5:0.250802 6:0.235627 7:1 8:1 9:1 10:1 11:1 12:1 13:0 14:0.238897 15:0.207109 16:0 17:1 18:0.425997 19:0.5378 
1 1:0.5 2:0.898877 3:0.847529 4:0.415037 5:0.449161 6:0.424521 7:1 8:1 9:1 10:1 11:1 12:1 13:0.511007 14:0.454289 15:0.398105 16:0.516462 17:0.772944 18:0.538844 19:0.529736 
1 1:0.5 2:0.436376 3:0.444566 4:0.415037 5:0.0902881 6:0.0899019 7:1 8:1 9:1 10:1 11:1 12:1 13:0.511007 14:0.0910941 15:0.0886216 16:0.516462 17:0.592274 18:0.488824 19:0.525064 
-1 1:0 2:0.572898 3:0.499148 4:0 5:0.195141 6:0.183255 7:1 8:1 9:1 10:1 11:1 12:1 13:0 14:0.189153 15:0.163912 16:0 17:0.936493 18:0.398911 19:0.519827 
1 1:1 2:0.838891 3:0.851819 4:0.44966 5:0.383881 6:0.390616 7:1 8:1 9:1 10:1 11:1 12:1 13:0.53428 14:0.37191 15:0.382089 16:0.903352 17:0.849581 18:1 19:1 
-1 1:1 2:0.420702 3:0.467188 4:0.55034 5:0.241642 6:0.254895 7:1 8:1 9:1 10:1 11:1 12:1 13:0.630247 14:0.23806 15:0.260645 16:0.9269 17:0.544707 18:0.832369 19:0.89488 
-1 1:0.5 2:0.35463 3:0.366296 4:0.354756 5:0.31032 6:0.329216 7:1 8:1 9:1 10:1 11:1 12:1 13:0.399236 14:0.301997 15:0.336646 16:0.504393 17:0.676515 18:0.746051 19:0.863718 
1 1:0 2:0.570264 3:0.524502 4:0 5:0.251399 6:0.252527 7:1 8:1 9:1 10:1 11:1 12:1 13:0 14:0.237128 15:0.238158 16:0 17:0.844316 18:0.603288 19:0.789683 
1 1:0 2:0.414766 3:0.381483 4:0 5:1 6:1 7:1 8:1 9:1 10:1 11:1 12:1 13:0 14:1 15:1 16:0 17:1 18:0.71403 19:0.757808 
-0.6732543858256176 1:0.5 2:0.243637 3:0.26421 4:0.354756 5:0.282588 6:0.306354 7:1 8:1 9:1 10:1 11:1 12:1 13:0.399236 14:0.293156 15:0.337232 16:0.504393 17:0.530156 18:0.648107 19:0.736277 
-0.994699929068814 1:1 2:1 3:1 4:1 5:0.196643 6:0.199035 7:1 8:1 9:1 10:1 11:1 12:1 13:1 14:0.185099 15:0.18826 16:1 17:0.700423 18:0.820523 19:0.723251 
-0.7644339423225278 1:0.5 2:0.269156 3:0.28768 4:0.5 5:0.242081 6:0.266958 7:1 8:1 9:1 10:1 11:1 12:1 13:0.516193 14:0.16984 15:0.215423 16:0.525749 17:0.505879 18:0.631537 19:0.688524 
1 1:0 2:0.356403 3:0.327803 4:0 5:0.101081 6:0.101498 7:1 8:1 9:1 10:1 11:1 12:1 13:0 14:0.104979 15:0.105396 16:0 17:0.726754 18:0.51925 19:0.682285 
-1 1:0.5 2:0.352342 3:0.364191 4:0.27517 5:0.19471 6:0.205595 7:1 8:1 9:1 10:1 11:1 12:1 13:0.264783 14:0.0983653 15:0.113064 16:0.361999 17:0.588666 18:0.605825 19:0.668907 
1 1:0 2:0.76955 3:0.707796 4:0 5:0.298221 6:0.300078 7:1 8:1 9:1 10:1 11:1 12:1 13:0 14:0.202849 15:0.204081 16:0 17:0.700101 18:0.500421 19:0.662858 
-1 1:0.5 2:0.358972 3:0.370289 4:0.5 5:0.23116 6:0.240403 7:1 8:1 9:1 10:1 11:1 12:1 13:0.483807 14:0.203114 15:0.217628 16:0.474251 17:0.526897 18:0.592692 19:0.659723 
-1 1:0.5 2:0.467396 3:0.470013 4:0.5 5:0.108341 6:0.11274 7:1 8:1 9:1 10:1 11:1 12:1 13:0.420982 14:0.068605 15:0.0740666 16:0.384488 17:0.680073 18:0.63839 19:0.650909 
-1 1:0.5 2:0.307303 3:0.322767 4:0.145244 5:0.117379 6:0.125347 7:1 8:1 9:1 10:1 11:1 12:1 13:0.146437 14:0.0872781 15:0.0979206 16:0.311363 17:0.529908 18:0.549688 19:0.640887 
-1 1:0.5 2:0.275787 3:0.293779 4:0.354756 5:0.124736 6:0.139007 7:1 8:1 9:1 10:1 11:1 12:1 13:0.318551 14:0.075785 15:0.0947117 16:0.363088 17:0.575158 18:0.596996 19:0.640752 
-0.2266709161473204 1:0 2:0.312779 3:0.28768 4:0 5:0.157539 6:0.158126 7:1 8:1 9:1 10:1 11:1 12:1 13:0 14:0.109325 15:0.109715 16:0 17:0.820148 18:0.585931 19:0.636708 
-1 1:0 2:0.558986 3:0.514129 4:0 5:0.185569 6:0.186591 7:1 8:1 9:1 10:1 11:1 12:1 13:0 14:0.18091 15:0.181879 16:0 17:0.714873 18:0.510905 19:0.636403 
1 1:0 2:0.243637 3:0.224086 4:0 5:0.121312 6:0.121776 7:1 8:1 9:1 10:1 11:1 12:1 13:0 14:0.132937 15:0.133427 16:0 17:0.745169 18:0.532376 19:0.628122 
-0.8240538415969099 1:0 2:0.663707 3:0.610447 4:0 5:0.220115 6:0.221438 7:1 8:1 9:1 10:1 11:1 12:1 13:0 14:0.204171 15:0.205366 16:0 17:0.626483 18:0.447788 19:0.627849 
-1 1:0 2:0.453353 3:0.416973 4:0 5:0.193707 6:0.194494 7:1 8:1 9:1 10:1 11:1 12:1 13:0 14:0.154652 15:0.155257 16:0 17:0.66015 18:0.471659 19:0.622889 
-1 1:0.5 2:0.235233 3:0.25648 4:0.27517 5:0.267685 6:0.296405 7:1 8:1 9:1 10:1 11:1 12:1 13:0.264783 14:0.151255 15:0.192171 16:0.361999 17:0.574171 18:0.622475 19:0.611777 
1 1:0 2:0.400027 3:0.367926 4:0 5:0.175344 6:0.176183 7:1 8:1 9:1 10:1 11:1 12:1 13:0 14:0.101856 15:0.102327 16:0 17:0.793057 18:0.566711 19:0.607367 
1 1:0.5 2:0.518433 3:0.516954 4:0.190091 5:0.124699 6:0.128064 7:1 8:1 9:1 10:1 11:1 12:1 13:0.192307 14:0.0632712 15:0.0674045 16:0.340607 17:0.523965 18:0.525343 19:0.590988 
-0.9057043719489428 1:0 2:0.414071 3:0.380843 4:0 5:0.12166 6:0.122141 7:1 8:1 9:1 10:1 11:1 12:1 13:0 14:0.112921 15:0.11335 16:0 17:0.573589 18:0.409805 19:0.580423 
-0.3021606992885442 1:0 2:0.414071 3:0.380843 4:0 5:0.213347 6:0.214181 7:1 8:1 9:1 10:1 11:1 12:1 13:0 14:0.203396 15:0.204162 16:0 17:0.598669 18:0.427717 19:0.577754 
-1 1:0 2:0.499388 3:0.459314 4:0 5:0.129944 6:0.130649 7:1 8:1 9:1 10:1 11:1 12:1 13:0 14:0.108665 15:0.109238 16:0 17:0.574447 18:0.410559 19:0.573483 
-0.9564248169308909 1:0 2:0.358972 3:0.330166 4:0 5:0.168853 6:0.169636 7:1 8:1 9:1 10:1 11:1 12:1 13:0 14:0.126946 15:0.127516 16:0 17:0.610157 18:0.435996 19:0.559141 
1 1:0 2:0.455922 3:0.419336 4:0 5:0.0540237 6:0.0543462 7:1 8:1 9:1 10:1 11:1 12:1 13:0 14:0.0384053 15:0.0386286 16:0 17:0.64833 18:0.46345 19:0.558043 
1 1:0 2:0.188539 3:0.173409 4:0 5:0.110586 6:0.110946 7:1 8:1 9:1 10:1 11:1 12:1 13:0 14:0.128156 15:0.128555 16:0 17:0.671286 18:0.479546 19:0.5524 
1 1:0 2:0.401325 3:0.36912 4:0 5:0.118346 6:0.11897 7:1 8:1 9:1 10:1 11:1 12:1 13:0 14:0.0868532 15:0.0872977 16:0 17:0.581522 18:0.415604 19:0.551088 
-0.5210489625874563 1:0 2:0.294674 3:0.271027 4:0 5:0.180892 6:0.181427 7:1 8:1 9:1 10:1 11:1 12:1 13:0 14:0.127424 15:0.127782 16:0 17:0.653205 18:0.466587 19:0.549364 
-1 1:0 2:0.444949 3:0.409243 4:0 5:0.139833 6:0.140598 7:1 8:1 9:1 10:1 11:1 12:1 13:0 14:0.0965309 15:0.0970441 16:0 17:0.586939 18:0.419491 19:0.546444 
-0.4904871313679981 1:0 2:0.537836 3:0.494677 4:0 5:0.0868585 6:0.0873606 7:1 8:1 9:1 10:1 11:1 12:1 13:0 14:0.0564003 15:0.0567176 16:0 17:0.541539 18:0.387088 19:0.542386 
1 1:0 2:0.356403 3:0.327803 4:0 5:0.0905897 6:0.0910751 7:1 8:1 9:1 10:1 11:1 12:1 13:0 14:0.0586416 15:0.0589467 16:0 17:0.694253 18:0.496189 19:0.539746 
-0.5330309380707855 1:1 2:0.449291 3:0.493483 4:0.235064 5:0.0671055 6:0.0719074 7:1 8:1 9:1 10:1 11:1 12:1 13:0.245398 14:0.0421796 15:0.0485394 16:0.613287 17:0.340039 18:0.527759 19:0.535623 
-1 1:1 2:0.822818 3:0.842057 4:0.709511 5:0.365784 6:0.349019 7:1 8:1 9:1 10:1 11:1 12:1 13:0.769943 14:0.35257 15:0.323472 16:0.956613 17:0.87567 18:0.854678 19:1 
-1 1:1 2:0.770079 3:0.795045 4:1 5:0.292645 6:0.284132 7:1 8:1 9:1 10:1 11:1 12:1 13:1 14:0.243365 15:0.233792 16:1 17:0.866444 18:0.853454 19:0.997243 
-1 1:1 2:0.719523 3:0.749978 4:0.709511 5:0.296746 6:0.288627 7:1 8:1 9:1 10:1 11:1 12:1 13:0.769943 14:0.279523 15:0.266125 16:0.956613 17:0.852548 18:0.848831 19:0.995911 
-1 1:1 2:0.665018 3:0.701391 4:1 5:0.272945 6:0.268504 7:1 8:1 9:1 10:1 11:1 12:1 13:1 14:0.263739 15:0.255038 16:1 17:0.833613 18:0.841122 19:0.985434 
1 1:1 2:0.680309 3:0.715022 4:0.55034 5:0.316315 6:0.304987 7:1 8:1 9:1 10:1 11:1 12:1 13:0.629129 14:0.327889 15:0.304883 16:0.925816 17:0.817985 18:0.8276 19:0.979648 
-1 1:1 2:0.668967 3:0.704912 4:0.709511 5:0.297973 6:0.288824 7:1 8:1 9:1 10:1 11:1 12:1 13:0.769943 14:0.307816 15:0.288462 16:0.956613 17:0.812923 18:0.825072 19:0.9783 
1 1:1 2:0.624802 3:0.665543 4:1 5:0.204653 6:0.205625 7:1 8:1 9:1 10:1 11:1 12:1 13:1 14:0.175725 15:0.179644 16:1 17:0.812467 18:0.828506 19:0.974193 
1 1:1 2:0.614462 3:0.656325 4:1 5:0.266911 6:0.264093 7:1 8:1 9:1 10:1 11:1 12:1 13:1 14:0.26906 15:0.261387 16:1 17:0.813393 18:0.832453 19:0.972048 
1 1:1 2:0.849908 3:0.866206 4:1 5:0.245514 6:0.235314 7:1 8:1 9:1 10:1 11:1 12:1 13:1 14:0.213556 15:0.198823 16:1 17:0.837833 18:0.820231 19:0.970662 
1 1:1 2:0.668967 3:0.704912 4:0.55034 5:0.193373 6:0.190895 7:1 8:1 9:1 10:1 11:1 12:1 13:0.629129 14:0.174597 15:0.171748 16:0.925816 17:0.798984 18:0.811401 19:0.970422 
-1 1:1 2:0.778653 3:0.802688 4:1 5:0.301356 6:0.287669 7:1 8:1 9:1 10:1 11:1 12:1 13:1 14:0.310195 15:0.282937 16:1 17:0.817048 18:0.81366 19:0.968622 
-1 1:1 2:0.786828 3:0.809976 4:1 5:0.310624 6:0.296011 7:1 8:1 9:1 10:1 11:1 12:1 13:1 14:0.320638 15:0.291567 16:1 17:0.81894 18:0.814221 19:0.968355 
-0.1238894421555698 1:1 2:0.585588 3:0.630586 4:1 5:0.757849 6:0.760516 7:1 8:1 9:1 10:1 11:1 12:1 13:1 14:0.668555 15:0.685052 16:1 17:1 18:0.985668 19:0.966444 
1 1:1 2:0.579197 3:0.624889 4:1 5:0.206843 6:0.207849 7:1 8:1 9:1 10:1 11:1 12:1 13:1 14:0.204724 15:0.204569 16:1 17:0.786237 18:0.814762 19:0.964723 
1 1:1 2:0.579197 3:0.624889 4:1 5:0.273845 6:0.274859 7:1 8:1 9:1 10:1 11:1 12:1 13:1 14:0.270042 15:0.269679 16:1 17:0.826889 18:0.847921 19:0.964723 
1 1:1 2:0.579197 3:0.624889 4:0.709511 5:0.413377 6:0.412235 7:1 8:1 9:1 10:1 11:1 12:1 13:0.769943 14:0.404571 15:0.40193 16:0.956613 17:0.887109 18:0.896355 19:0.964723 
1 1:1 2:0.873374 3:0.887124 4:0.709511 5:0.248406 6:0.236554 7:1 8:1 9:1 10:1 11:1 12:1 13:0.769943 14:0.2305 15:0.211017 16:0.956613 17:0.830406 18:0.811292 19:0.962417 
1 1:1 2:0.707398 3:0.73917 4:0.55034 5:0.213335 6:0.206788 7:1 8:1 9:1 10:1 11:1 12:1 13:0.629129 14:0.212816 15:0.20011 16:0.925816 17:0.787345 18:0.797755 19:0.960061 
-1 1:1 2:0.558498 3:0.606438 4:0.709511 5:0.489644 6:0.491446 7:1 8:1 9:1 10:1 11:1 12:1 13:0.769943 14:0.470518 15:0.475135 16:0.956613 17:0.917483 18:0.923381 19:0.959643 
1 1:1 2:0.826043 3:0.844932 4:1 5:0.268399 6:0.255448 7:1 8:1 9:1 10:1 11:1 12:1 13:1 14:0.271693 15:0.246782 16:1 17:0.811938 18:0.80294 19:0.95778 
1 1:1 2:0.558498 3:0.606438 4:1 5:0.246041 6:0.252356 7:1 8:1 9:1 10:1 11:1 12:1 13:1 14:0.214967 15:0.227897 16:1 17:0.837723 18:0.858232 19:0.957568 
-1 1:1 2:0.639254 3:0.678425 4:0.709511 5:0.382691 6:0.367397 7:1 8:1 9:1 10:1 11:1 12:1 13:0.769943 14:0.410827 15:0.377854 16:0.956613 17:0.795935 18:0.819145 19:0.957037 
1 1:1 2:0.741519 3:0.769586 4:1 5:0.229765 6:0.221283 7:1 8:1 9:1 10:1 11:1 12:1 13:1 14:0.233426 15:0.2163 16:1 17:0.788755 18:0.795014 19:0.955686 
1 1:1 2:0.609054 3:0.651504 4:1 5:0.310739 6:0.301742 7:1 8:1 9:1 10:1 11:1 12:1 13:1 14:0.333205 15:0.311711 16:1 17:0.776971 18:0.807519 19:0.953538 
1 1:1 2:0.535032 3:0.58552 4:1 5:0.415977 6:0.42512 7:1 8:1 9:1 10:1 11:1 12:1 13:1 14:0.393965 15:0.409596 16:1 17:0.899156 18:0.91222 19:0.953058 
1 1:1 2:0.597712 3:0.641394 4:1 5:0.299108 6:0.291559 7:1 8:1 9:1 10:1 11:1 12:1 13:1 14:0.320177 15:0.301417 16:1 17:0.775514 18:0.807743 19:0.952055 
1 1:1 2:0.597712 3:0.641394 4:0.709511 5:0.34179 6:0.332262 7:1 8:1 9:1 10:1 11:1 12:1 13:0.769943 14:0.36485 15:0.342668 16:0.956613 17:0.7945 18:0.823096 19:0.952055 
1 1:1 2:1 3:1 4:1 5:0.352992 6:0.330693 7:1 8:1 9:1 10:1 11:1 12:1 13:1 14:0.354954 15:0.313758 16:1 17:0.852757 18:0.814583 19:0.950743 
1 1:1 2:0.585588 3:0.630586 4:1 5:0.297753 6:0.291467 7:1 8:1 9:1 10:1 11:1 12:1 13:1 14:0.317844 15:0.301368 16:1 17:0.779086 18:0.812209 19:0.950356 
-1 1:1 2:0.572564 3:0.618977 4:0.709511 5:0.31935 6:0.313276 7:1 8:1 9:1 10:1 11:1 12:1 13:0.769943 14:0.339297 15:0.323565 16:0.956613 17:0.793611 18:0.825495 19:0.948391 
1 1:1 2:0.572564 3:0.618977 4:1 5:0.413186 6:0.405839 7:1 8:1 9:1 10:1 11:1 12:1 13:1 14:0.436371 15:0.416971 16:1 17:0.830705 18:0.85615 19:0.948391 
1 1:1 2:0.585588 3:0.630586 4:1 5:0.257003 6:0.251695 7:1 8:1 9:1 10:1 11:1 12:1 13:1 14:0.275075 15:0.260855 16:1 17:0.75825 18:0.795043 19:0.946727 
1 1:1 2:0.701007 3:0.733473 4:0.709511 5:0.238143 6:0.22906 7:1 8:1 9:1 10:1 11:1 12:1 13:0.769943 14:0.249967 15:0.230716 16:0.956613 17:0.770603 18:0.786483 19:0.94618 
1 1:1 2:0.558498 3:0.606438 4:1 5:0.292278 6:0.28913 7:1 8:1 9:1 10:1 11:1 12:1 13:1 14:0.309873 15:0.299093 16:1 17:0.785838 18:0.821177 19:0.946092 
1 1:1 2:0.558498 3:0.606438 4:1 5:0.244357 6:0.241882 7:1 8:1 9:1 10:1 11:1 12:1 13:1 14:0.259869 15:0.250888 16:1 17:0.760376 18:0.800247 19:0.946092 
1 1:1 2:0.585588 3:0.630586 4:1 5:0.251946 6:0.246757 7:1 8:1 9:1 10:1 11:1 12:1 13:1 14:0.269752 15:0.255811 16:1 17:0.75545 18:0.792732 19:0.945027 
1 1:1 2:0.507942 3:0.561372 4:1 5:0.306109 6:0.318228 7:1 8:1 9:1 10:1 11:1 12:1 13:1 14:0.28446 15:0.305365 16:1 17:0.860067 18:0.884162 19:0.944182 
-1 1:1 2:0.543207 3:0.592807 4:0.55034 5:0.22064 6:0.219067 7:1 8:1 9:1 10:1 11:1 12:1 13:0.629129 14:0.233917 15:0.227541 16:0.925816 17:0.751112 18:0.794119 19:0.943364 
1 1:1 2:0.543207 3:0.592807 4:1 5:0.424734 6:0.422098 7:1 8:1 9:1 10:1 11:1 12:1 13:1 14:0.444512 15:0.433585 16:1 17:0.845109 18:0.871552 19:0.943364 
1 1:1 2:0.931104 3:0.938585 4:1 5:0.358487 6:0.335848 7:1 8:1 9:1 10:1 11:1 12:1 13:1 14:0.376257 15:0.33205 16:1 17:0.821912 18:0.79854 19:0.939282 
-1 1:1 2:0.790778 3:0.813496 4:0.55034 5:0.603397 6:0.562817 7:1 8:1 9:1 10:1 11:1 12:1 13:0.629129 14:0.649783 15:0.570193 16:0.925816 17:0.80669 18:0.80932 19:0.938283 
1 1:1 2:0.609054 3:0.651504 4:1 5:0.255902 6:0.248629 7:1 8:1 9:1 10:1 11:1 12:1 13:1 14:0.275397 15:0.257671 16:1 17:0.749618 18:0.784932 19:0.937943 
-1 1:1 2:0.744084 3:0.771873 4:1 5:0.260436 6:0.248277 7:1 8:1 9:1 10:1 11:1 12:1 13:1 14:0.27668 15:0.251202 16:1 17:0.769409 18:0.780336 19:0.936069 
-1 1:1 2:0.507942 3:0.561372 4:0.380182 5:0.256072 6:0.256714 7:1 8:1 9:1 10:1 11:1 12:1 13:0.462935 14:0.267513 15:0.266175 16:0.882398 17:0.784169 18:0.824962 19:0.93604 
-1 1:1 2:0.507942 3:0.561372 4:1 5:0.293415 6:0.297257 7:1 8:1 9:1 10:1 11:1 12:1 13:1 14:0.305813 15:0.307566 16:1 17:0.803731 18:0.842276 19:0.93604 
1 1:1 2:0.507942 3:0.561372 4:1 5:0.246319 6:0.249762 7:1 8:1 9:1 10:1 11:1 12:1 13:1 14:0.257481 15:0.25906 16:1 17:0.778609 18:0.821729 19:0.93604 
1 1:1 2:0.535032 3:0.58552 4:1 5:0.12725 6:0.130874 7:1 8:1 9:1 10:1 11:1 12:1 13:1 14:0.122276 15:0.12762 16:1 17:0.727197 18:0.772263 19:0.935126 
1 1:1 2:0.751563 3:0.77854 4:1 5:0.264028 6:0.251311 7:1 8:1 9:1 10:1 11:1 12:1 13:1 14:0.281001 15:0.254443 16:1 17:0.768894 18:0.778992 19:0.93385 
-0.02897086503778076 1:1 2:0.475901 3:0.53281 4:1 5:0.624533 6:0.655544 7:1 8:1 9:1 10:1 11:1 12:1 13:1 14:0.55389 15:0.615357 16:1 17:0.97119 18:0.977868 19:0.931569 
1 1:1 2:0.487243 3:0.54292 4:0.709511 5:0.205259 6:0.210246 7:1 8:1 9:1 10:1 11:1 12:1 13:0.769943 14:0.213249 15:0.218541 16:0.956613 17:0.759415 18:0.808414 19:0.930959 
1 1:1 2:0.487243 3:0.54292 4:1 5:0.242343 6:0.248666 7:1 8:1 9:1 10:1 11:1 12:1 13:1 14:0.251202 15:0.25798 16:1 17:0.783158 18:0.828154 19:0.930959 
1 1:1 2:0.701007 3:0.733473 4:1 5:0.359566 6:0.341141 7:1 8:1 9:1 10:1 11:1 12:1 13:1 14:0.390151 15:0.351142 16:1 17:0.76548 18:0.786522 19:0.930826 
1 1:1 2:0.761065 3:0.78701 4:0.55034 5:0.195279 6:0.186919 7:1 8:1 9:1 10:1 11:1 12:1 13:0.629129 14:0.20072 15:0.184081 16:0.925816 17:0.759861 18:0.768684 19:0.928603 
-1 1:1 2:0.939678 3:0.946228 4:1 5:0.252875 6:0.238168 7:1 8:1 9:1 10:1 11:1 12:1 13:1 14:0.254337 15:0.226873 16:1 17:0.807114 18:0.784608 19:0.92814 
1 1:1 2:0.822818 3:0.842057 4:1 5:0.24626 6:0.23323 7:1 8:1 9:1 10:1 11:1 12:1 13:1 14:0.258644 15:0.23241 16:1 17:0.774357 18:0.773274 19:0.925504 
1 1:1 2:0.868424 3:0.882711 4:1 5:0.18771 6:0.178742 7:1 8:1 9:1 10:1 11:1 12:1 13:1 14:0.18105 15:0.165055 16:1 17:0.781176 18:0.771938 19:0.923924 
1 1:1 2:0.959445 3:0.963848 4:1 5:0.355453 6:0.332014 7:1 8:1 9:1 10:1 11:1 12:1 13:1 14:0.376086 15:0.33011 16:1 17:0.811402 18:0.786533 19:0.921669 
-1 1:1 2:0.463777 3:0.522002 4:0.329329 5:0.127896 6:0.132383 7:1 8:1 9:1 10:1 11:1 12:1 13:0.409392 14:0.131999 15:0.138132 16:0.865889 17:0.700003 18:0.761961 19:0.918571 
1 1:1 2:0.436687 3:0.497854 4:1 5:0.245224 6:0.26042 7:1 8:1 9:1 10:1 11:1 12:1 13:1 14:0.247508 15:0.270104 16:1 17:0.80113 18:0.849556 19:0.915498 
1 1:1 2:0.436687 3:0.497854 4:1 5:0.734899 6:0.769514 7:1 8:1 9:1 10:1 11:1 12:1 13:1 14:0.721797 15:0.780859 16:1 17:0.962399 18:0.979486 19:0.915498 
-1 1:1 2:0.829209 3:0.847754 4:1 5:0.23302 6:0.220472 7:1 8:1 9:1 10:1 11:1 12:1 13:1 14:0.245467 15:0.220151 16:1 17:0.76448 18:0.764363 19:0.914883 
-1 1:1 2:0.770079 3:0.795045 4:1 5:0.145659 6:0.140381 7:1 8:1 9:1 10:1 11:1 12:1 13:1 14:0.143642 15:0.133529 16:1 17:0.738462 18:0.749542 19:0.908691 
-1 1:1 2:0.609054 3:0.651504 4:1 5:0.187602 6:0.182395 7:1 8:1 9:1 10:1 11:1 12:1 13:1 14:0.202815 15:0.189797 16:1 17:0.706605 18:0.749213 19:0.906034 
1 1:1 2:0.719523 3:0.749978 4:1 5:0.310846 6:0.294002 7:1 8:1 9:1 10:1 11:1 12:1 13:1 14:0.339132 15:0.303513 16:1 17:0.739084 18:0.76219 19:0.90529 
1 1:1 2:0.404647 3:0.469293 4:1 5:0.197504 6:0.215754 7:1 8:1 9:1 10:1 11:1 12:1 13:1 14:0.195581 15:0.224208 16:1 17:0.779575 18:0.836453 19:0.902885 
1 1:1 2:0.404647 3:0.469293 4:0.55034 5:0.141025 6:0.15351 7:1 8:1 9:1 10:1 11:1 12:1 13:0.629129 14:0.140092 15:0.159942 16:0.925816 17:0.731316 18:0.796397 19:0.902885 
1 1:1 2:0.687483 3:0.721417 4:1 5:0.2581 6:0.245687 7:1 8:1 9:1 10:1 11:1 12:1 13:1 14:0.281484 15:0.254515 16:1 17:0.724358 18:0.753953 19:0.901614 
1 1:1 2:0.687483 3:0.721417 4:1 5:0.252909 6:0.240754 7:1 8:1 9:1 10:1 11:1 12:1 13:1 14:0.27592 15:0.249485 16:1 17:0.721592 18:0.751639 19:0.899205 
-1 1:1 2:0.463777 3:0.522002 4:0.290489 5:0.104543 6:0.108291 7:1 8:1 9:1 10:1 11:1 12:1 13:0.367096 14:0.108051 15:0.113126 16:0.851588 17:0.671936 18:0.738775 19:0.898349 
-1 1:1 2:0.707398 3:0.73917 4:1 5:0.273765 6:0.259549 7:1 8:1 9:1 10:1 11:1 12:1 13:1 14:0.299009 15:0.26859 16:1 17:0.725798 18:0.752614 19:0.897227 
-1 1:1 2:0.680309 3:0.715022 4:1 5:0.220709 6:0.210467 7:1 8:1 9:1 10:1 11:1 12:1 13:1 14:0.241078 15:0.218546 16:1 17:0.705492 18:0.739067 19:0.886703 
1 1:1 2:0.971719 3:0.97479 4:1 5:0.211496 6:0.198456 7:1 8:1 9:1 10:1 11:1 12:1 13:1 14:0.216694 15:0.191848 16:1 17:0.77262 18:0.752484 19:0.885853 
1 1:1 2:0.719523 3:0.749978 4:1 5:0.156653 6:0.150273 7:1 8:1 9:1 10:1 11:1 12:1 13:1 14:0.166322 15:0.152489 16:1 17:0.705841 18:0.730822 19:0.885654 
-1 1:1 2:0.656842 3:0.694104 4:0.55034 5:0.188382 6:0.18035 7:1 8:1 9:1 10:1 11:1 12:1 13:0.629129 14:0.205487 15:0.187662 16:0.925816 17:0.691717 18:0.730345 19:0.88034 
1 1:1 2:0.954131 3:0.959111 4:1 5:0.213027 6:0.199784 7:1 8:1 9:1 10:1 11:1 12:1 13:1 14:0.222041 15:0.196264 16:1 17:0.761902 18:0.746016 19:0.878905 
1 1:1 2:0.852676 3:0.868673 4:1 5:0.193889 6:0.182813 7:1 8:1 9:1 10:1 11:1 12:1 13:1 14:0.206251 15:0.18379 16:1 17:0.731181 18:0.733984 19:0.874623 
1 1:1 2:0.690963 3:0.724519 4:1 5:0.124103 6:0.119959 7:1 8:1 9:1 10:1 11:1 12:1 13:1 14:0.130732 15:0.121423 16:1 17:0.682195 18:0.714809 19:0.869576 
1 1:1 2:0.719523 3:0.749978 4:1 5:0.231283 6:0.218839 7:1 8:1 9:1 10:1 11:1 12:1 13:1 14:0.253701 15:0.227069 16:1 17:0.699228 18:0.728706 19:0.86809 
-1 1:1 2:0.719523 3:0.749978 4:0.44966 5:0.0903886 6:0.0881396 7:1 8:1 9:1 10:1 11:1 12:1 13:0.533038 14:0.0860119 15:0.0819956 16:0.901923 17:0.681346 18:0.708713 19:0.861988 
1 1:1 2:0.507942 3:0.561372 4:1 5:0.342436 6:0.331373 7:1 8:1 9:1 10:1 11:1 12:1 13:1 14:0.380079 15:0.352556 16:1 17:0.616044 18:0.721824 19:0.850829 
1 1:1 2:0.79272 3:0.815227 4:1 5:0.153468 6:0.14829 7:1 8:1 9:1 10:1 11:1 12:1 13:0.890512 14:0.104724 15:0.0995953 16:0.83718 17:0.764129 18:0.707124 19:0.848448 
1 1:1 2:0.487243 3:0.54292 4:0.709511 5:0.428176 6:0.415692 7:1 8:1 9:1 10:1 11:1 12:1 13:0.769943 14:0.472436 15:0.441768 16:0.956613 17:0.632753 18:0.744575 19:0.848364 
-1 1:1 2:0.487243 3:0.54292 4:1 5:0.353868 6:0.344784 7:1 8:1 9:1 10:1 11:1 12:1 13:1 14:0.392455 15:0.36805 16:1 17:0.618495 18:0.729412 19:0.848364 
-0.8684407954210562 1:1 2:0.487243 3:0.54292 4:1 5:0.443271 6:0.431495 7:1 8:1 9:1 10:1 11:1 12:1 13:1 14:0.488585 15:0.458112 16:1 17:0.635351 18:0.747606 19:0.848364 
1 1:1 2:0.475901 3:0.53281 4:1 5:0.261815 6:0.256424 7:1 8:1 9:1 10:1 11:1 12:1 13:1 14:0.292244 15:0.275953 16:1 17:0.596054 18:0.707883 19:0.845326 
-1 1:1 2:0.463777 3:0.522002 4:1 5:0.327408 6:0.321984 7:1 8:1 9:1 10:1 11:1 12:1 13:1 14:0.36378 15:0.346049 16:1 17:0.612696 18:0.728791 19:0.845183 
1 1:1 2:0.463777 3:0.522002 4:1 5:0.291633 6:0.286923 7:1 8:1 9:1 10:1 11:1 12:1 13:1 14:0.324843 15:0.309044 16:1 17:0.604076 18:0.71948 19:0.845183 
-1 1:1 2:0.463777 3:0.522002 4:1 5:0.372128 6:0.365767 7:1 8:1 9:1 10:1 11:1 12:1 13:1 14:0.412183 15:0.39204 16:1 17:0.622254 18:0.739107 19:0.845183 
-1 1:1 2:0.651938 3:0.697559 4:0.709511 5:0.224204 6:0.240248 7:1 8:1 9:1 10:1 11:1 12:1 13:0.905224 14:0.226061 15:0.266818 16:1 17:0.795749 18:0.955429 19:1 
1 1:1 2:0.802782 3:0.828632 4:0.709511 5:0.353893 6:0.373016 7:1 8:1 9:1 10:1 11:1 12:1 13:0.752959 14:0.356686 15:0.388932 16:0.770445 17:0.964174 18:0.952432 19:0.99894 
-1 1:1 2:0.988722 3:0.9902 4:0.55034 5:0.641773 6:0.638906 7:1 8:1 9:1 10:1 11:1 12:1 13:0.737121 14:0.644248 15:0.635217 16:0.965291 17:0.871342 18:0.968954 19:0.947834 
1 1:1 2:0.691615 3:0.732036 4:0.709511 5:0.218809 6:0.236738 7:1 8:1 9:1 10:1 11:1 12:1 13:0.752959 14:0.220713 15:0.252553 16:0.770445 17:0.854359 18:0.879897 19:0.944964 
-1 1:1 2:0.740176 3:0.774232 4:0.44966 5:0.715221 6:0.736388 7:1 8:1 9:1 10:1 11:1 12:1 13:0.507853 14:0.717909 15:0.754672 16:0.7089 17:1 18:1 19:0.939172 
-1 1:1 2:0.709034 3:0.747172 4:0.55034 5:0.441345 6:0.46132 7:1 8:1 9:1 10:1 11:1 12:1 13:0.606026 14:0.444113 15:0.477877 16:0.735776 17:0.911105 18:0.931028 19:0.936393 
-1 1:1 2:0.672679 3:0.715582 4:0.380182 5:0.499686 6:0.525065 7:1 8:1 9:1 10:1 11:1 12:1 13:0.437383 14:0.502623 15:0.550143 16:0.686953 17:0.952841 18:0.970192 19:0.932579 
1 1:1 2:1 3:1 4:0.709511 5:0.518754 6:0.520818 7:1 8:1 9:1 10:1 11:1 12:1 13:0.752959 14:0.521568 15:0.516233 16:0.770445 17:0.919922 18:0.889604 19:0.917893 
-1 1:1 2:0.833197 3:0.855061 4:0.55034 5:0.565088 6:0.573486 7:1 8:1 9:1 10:1 11:1 12:1 13:0.606026 14:0.567826 15:0.57591 16:0.735776 17:0.9091 18:0.911365 19:0.915767 
-1 1:1 2:0.760918 3:0.792255 4:0.329329 5:0.11579 6:0.122162 7:1 8:1 9:1 10:1 11:1 12:1 13:0.47677 14:0.116869 15:0.133026 16:0.897771 17:0.702766 18:0.853509 19:0.906302 
-1 1:1 2:0.540771 3:0.600963 4:0.709511 5:0.0801117 6:0.0911675 7:1 8:1 9:1 10:1 11:1 12:1 13:0.905224 14:0.0808803 15:0.108923 16:1 17:0.629153 18:0.832025 19:0.885502 
-1 1:1 2:0.964244 3:0.968931 4:0.44966 5:0.663683 6:0.661463 7:1 8:1 9:1 10:1 11:1 12:1 13:0.507853 14:0.666124 15:0.651013 16:0.7089 17:0.885151 18:0.872284 19:0.867248 
-1 1:1 2:0.691615 3:0.732036 4:1 5:0.221492 6:0.234142 7:1 8:1 9:1 10:1 11:1 12:1 13:1 14:0.223317 15:0.244212 16:0.819334 17:0.774848 18:0.819762 19:0.866975 
-1 1:1 2:0.754221 3:0.786436 4:0.55034 5:0.27871 6:0.288422 7:1 8:1 9:1 10:1 11:1 12:1 13:0.606026 14:0.280838 15:0.295363 16:0.735776 17:0.796131 18:0.827949 19:0.865936 
-1 1:1 2:0.691615 3:0.732036 4:0.709511 5:0.210082 6:0.221877 7:1 8:1 9:1 10:1 11:1 12:1 13:0.752959 14:0.211834 15:0.231437 16:0.770445 17:0.763988 18:0.810412 19:0.859399 
-1 1:1 2:0.589332 3:0.643159 4:0.709511 5:0.056195 6:0.0639883 7:1 8:1 9:1 10:1 11:1 12:1 13:0.905224 14:0.0567499 15:0.0764638 16:1 17:0.601181 18:0.795502 19:0.852611 
-0.9796661636874459 1:1 2:0.478165 3:0.546563 4:0.709511 5:0.237037 6:0.259511 7:1 8:1 9:1 10:1 11:1 12:1 13:0.905224 14:0.238867 15:0.296531 16:1 17:0.54585 18:0.832886 19:0.838647 
-1 1:1 2:0.833197 3:0.855061 4:0.55034 5:0.314522 6:0.319912 7:1 8:1 9:1 10:1 11:1 12:1 13:0.606026 14:0.316785 15:0.32188 16:0.735776 17:0.787683 18:0.809138 19:0.83751 
1 1:1 2:0.521566 3:0.592425 4:0.643856 5:0.663125 6:0.627016 7:1 8:1 9:1 10:1 11:1 12:1 13:0.815627 14:0.722291 15:0.521972 16:0.966417 17:0.956802 18:0.907738 19:1 
1 1:1 2:0.449409 3:0.530955 4:0.643856 5:0.520584 6:0.516458 7:1 8:1 9:1 10:1 11:1 12:1 13:0.815627 14:0.567607 15:0.450018 16:0.966417 17:0.917256 18:0.898702 19:0.987054 
1 1:1 2:0.504819 3:0.578159 4:0.643856 5:0.529479 6:0.505936 7:1 8:1 9:1 10:1 11:1 12:1 13:0.815627 14:0.567093 15:0.419807 16:0.966417 17:0.919502 18:0.885041 19:0.979851 
1 1:1 2:0.34771 3:0.444319 4:0.643856 5:0.292431 6:0.322451 7:1 8:1 9:1 10:1 11:1 12:1 13:0.815627 14:0.319366 15:0.305939 16:0.966417 17:0.823418 18:0.860219 19:0.955536 
1 1:1 2:0.34771 3:0.444319 4:0.526069 5:0.294136 6:0.323693 7:1 8:1 9:1 10:1 11:1 12:1 13:0.690146 14:0.321224 15:0.307115 16:0.940364 17:0.824361 18:0.860679 19:0.955536 
0.9842603268811763 1:1 2:0.34771 3:0.444319 4:0.21383 5:0.557399 6:0.591305 7:1 8:1 9:1 10:1 11:1 12:1 13:0.312689 14:0.607589 15:0.560102 16:0.828801 17:0.928411 18:0.932896 19:0.955536 
1 1:1 2:0.34771 3:0.444319 4:0.444785 5:0.311065 6:0.341447 7:1 8:1 9:1 10:1 11:1 12:1 13:0.598788 14:0.339671 15:0.323925 16:0.919076 17:0.83344 18:0.867067 19:0.955536 
1 1:1 2:0.34771 3:0.444319 4:0.643856 5:0.30176 6:0.332662 7:1 8:1 9:1 10:1 11:1 12:1 13:0.815627 14:0.329533 15:0.315607 16:0.966417 17:0.828512 18:0.863949 19:0.955536 
1 1:1 2:0.34771 3:0.444319 4:0.643856 5:0.304187 6:0.335316 7:1 8:1 9:1 10:1 11:1 12:1 13:0.815627 14:0.332177 15:0.318121 16:0.966417 17:0.829812 18:0.8649 19:0.955536 
1 1:1 2:0.403679 3:0.491998 4:0.643856 5:0.309474 6:0.320416 7:1 8:1 9:1 10:1 11:1 12:1 13:0.815627 14:0.337938 15:0.289316 16:0.966417 17:0.832608 18:0.849949 19:0.948618 
0.4503251664279917 1:1 2:0.504819 3:0.578159 4:0.526069 5:0.389755 6:0.372557 7:1 8:1 9:1 10:1 11:1 12:1 13:0.690146 14:0.43289 15:0.317551 16:0.940364 17:0.869676 18:0.848361 19:0.943256 
0.9948695316016221 1:1 2:0.311632 3:0.413584 4:0.643856 5:0.880072 6:1 7:1 8:1 9:1 10:1 11:1 12:1 13:0.815627 14:1 15:1 16:0.966417 17:1 18:1 19:0.943 
1 1:1 2:0.34771 3:0.444319 4:0.643856 5:0.24002 6:0.265001 7:1 8:1 9:1 10:1 11:1 12:1 13:0.815627 14:0.262227 15:0.251521 16:0.966417 17:0.791423 18:0.836767 19:0.932674 
0.9334708502598358 1:1 2:0.536337 3:0.605008 4:0.643856 5:0.398763 6:0.375023 7:1 8:1 9:1 10:1 11:1 12:1 13:0.815627 14:0.428474 15:0.30644 16:0.966417 17:0.873402 18:0.842734 19:0.931679 
1 1:1 2:0.275554 3:0.382849 4:0.643856 5:0.248494 6:0.307583 7:1 8:1 9:1 10:1 11:1 12:1 13:0.815627 14:0.271468 15:0.315299 16:0.966417 17:0.797038 18:0.864796 19:0.922585 
-1 1:1 2:0.275554 3:0.382849 4:0.830075 5:0.776079 6:0.949008 7:1 8:1 9:1 10:1 11:1 12:1 13:1 14:0.844647 15:0.968032 16:1 17:0.982559 18:0.999922 19:0.922585 
-1 1:1 2:0.275554 3:0.382849 4:0.830075 5:0.196281 6:0.243904 7:1 8:1 9:1 10:1 11:1 12:1 13:1 14:0.214508 15:0.250146 16:1 17:0.758921 18:0.837107 19:0.922585 
1 1:1 2:0.275554 3:0.382849 4:0.643856 5:0.199384 6:0.247253 7:1 8:1 9:1 10:1 11:1 12:1 13:0.815627 14:0.217895 15:0.253574 16:0.966417 17:0.761452 18:0.838734 19:0.922585 
1 1:1 2:0.564321 3:0.628848 4:0.643856 5:0.408257 6:0.378781 7:1 8:1 9:1 10:1 11:1 12:1 13:0.815627 14:0.439454 15:0.305562 16:0.966417 17:0.877317 18:0.838136 19:0.922344 
0.3422665904601158 1:1 2:0.488073 3:0.563893 4:0.643856 5:0.317593 6:0.307466 7:1 8:1 9:1 10:1 11:1 12:1 13:0.815627 14:0.346783 15:0.261476 16:0.966417 17:0.836812 18:0.828982 19:0.920757 
1 1:1 2:0.564321 3:0.628848 4:0.643856 5:0.401754 6:0.372768 7:1 8:1 9:1 10:1 11:1 12:1 13:0.815627 14:0.432472 15:0.30072 16:0.966417 17:0.874703 18:0.836218 19:0.919892 
0.9051729022094435 1:1 2:0.449409 3:0.530955 4:0.643856 5:0.28134 6:0.280077 7:1 8:1 9:1 10:1 11:1 12:1 13:0.815627 14:0.307278 15:0.244362 16:0.966417 17:0.817148 18:0.82537 19:0.91939 
1 1:1 2:0.468741 3:0.547424 4:0.643856 5:0.287872 6:0.282323 7:1 8:1 9:1 10:1 11:1 12:1 13:0.815627 14:0.307776 15:0.239371 16:0.966417 17:0.820113 18:0.822165 19:0.912523 
1 1:1 2:0.34771 3:0.444319 4:0.643856 5:0.203541 6:0.224928 7:1 8:1 9:1 10:1 11:1 12:1 13:0.815627 14:0.222431 15:0.213538 16:0.966417 17:0.764782 18:0.817196 19:0.910851 
0.9416744118095171 1:1 2:0.577534 3:0.640104 4:0.643856 5:0.389866 6:0.359725 7:1 8:1 9:1 10:1 11:1 12:1 13:0.815627 14:0.425479 15:0.291602 16:0.966417 17:0.870137 18:0.829345 19:0.909488 
0.7722967782426288 1:1 2:0.577534 3:0.640104 4:0.526069 5:0.376607 6:0.347239 7:1 8:1 9:1 10:1 11:1 12:1 13:0.690146 14:0.411047 15:0.281502 16:0.940364 17:0.864507 18:0.825112 19:0.903788 
0.9933660514143846 1:1 2:0.69493 3:0.740113 4:0.643856 5:0.496328 6:0.439969 7:1 8:1 9:1 10:1 11:1 12:1 13:0.815627 14:0.549517 15:0.345723 16:0.966417 17:0.909155 18:0.827696 19:0.884473 
1 1:1 2:0.275554 3:0.382849 4:0.444785 5:0.1413 6:0.175121 7:1 8:1 9:1 10:1 11:1 12:1 13:0.598788 14:0.154483 15:0.179698 16:0.919076 17:0.706044 18:0.797657 19:0.88096 
0.2543348582710237 1:1 2:0.687327 3:0.733636 4:0.526069 5:0.467898 6:0.415419 7:1 8:1 9:1 10:1 11:1 12:1 13:0.690146 14:0.514392 15:0.3252 16:0.940364 17:0.899779 18:0.822663 19:0.878759 
-1 1:1 2:0.606518 3:0.664795 4:0.830075 5:0.355589 6:0.323853 7:1 8:1 9:1 10:1 11:1 12:1 13:1 14:0.409443 15:0.270318 16:1 17:0.850727 18:0.807628 19:0.875188 
1 1:1 2:0.34771 3:0.444319 4:0.643856 5:0.159549 6:0.176505 7:1 8:1 9:1 10:1 11:1 12:1 13:0.815627 14:0.174412 15:0.167618 16:0.966417 17:0.725551 18:0.788308 19:0.87399 
1 1:1 2:0.589487 3:0.650287 4:0.643856 5:0.326053 6:0.299455 7:1 8:1 9:1 10:1 11:1 12:1 13:0.815627 14:0.360328 15:0.24388 16:0.966417 17:0.840908 18:0.804709 19:0.873156 
0.8847369993545764 1:1 2:0.536337 3:0.605008 4:0.643856 5:0.276 6:0.259873 7:1 8:1 9:1 10:1 11:1 12:1 13:0.815627 14:0.2968 15:0.212471 16:0.966417 17:0.813614 18:0.79881 19:0.872317 
0.7256642842703761 1:1 2:0.564321 3:0.628848 4:0.643856 5:0.296677 6:0.275514 7:1 8:1 9:1 10:1 11:1 12:1 13:0.815627 14:0.328402 15:0.227199 16:0.966417 17:0.82554 18:0.800049 19:0.870926 
0.9705671697036946 1:1 2:0.610438 3:0.668134 4:0.526069 5:0.33558 6:0.30527 7:1 8:1 9:1 10:1 11:1 12:1 13:0.690146 14:0.37845 15:0.250458 16:0.940364 17:0.844245 18:0.80162 19:0.865037 
1 1:1 2:0.403679 3:0.491998 4:0.643856 5:0.169703 6:0.176152 7:1 8:1 9:1 10:1 11:1 12:1 13:0.815627 14:0.185498 15:0.159183 16:0.966417 17:0.735475 18:0.778519 19:0.85828 
0.09817705295509224 1:1 2:0.642596 3:0.69553 4:0.444785 5:0.346094 6:0.311323 7:1 8:1 9:1 10:1 11:1 12:1 13:0.598788 14:0.38509 15:0.249764 16:0.919076 17:0.850288 18:0.797659 19:0.851727 
1 1:1 2:0.34771 3:0.444319 4:0.643856 5:0.137263 6:0.151934 7:1 8:1 9:1 10:1 11:1 12:1 13:0.815627 14:0.150074 15:0.144305 16:0.966417 17:0.701395 18:0.770478 19:0.848372 
0.9863684062832951 1:1 2:0.536337 3:0.605008 4:0.643856 5:0.240705 6:0.226716 7:1 8:1 9:1 10:1 11:1 12:1 13:0.815627 14:0.258904 15:0.185394 16:0.966417 17:0.791447 18:0.782494 19:0.847348 
0.983911886254254 1:1 2:0.504819 3:0.578159 4:0.526069 5:0.214268 6:0.205319 7:1 8:1 9:1 10:1 11:1 12:1 13:0.690146 14:0.238318 15:0.175189 16:0.940364 17:0.772713 18:0.777115 19:0.845794 
0.7115677383914243 1:1 2:0.589487 3:0.650287 4:0.526069 5:0.277525 6:0.254831 7:1 8:1 9:1 10:1 11:1 12:1 13:0.690146 14:0.299423 15:0.203558 16:0.940364 17:0.814657 18:0.785364 19:0.842335 
1 1:1 2:0.536337 3:0.605008 4:0.275007 5:0.213775 6:0.200724 7:1 8:1 9:1 10:1 11:1 12:1 13:0.392841 14:0.237214 15:0.168105 16:0.859431 17:0.772444 18:0.768021 19:0.82571 
1 1:1 2:0.564321 3:0.628848 4:0.643856 5:0.231238 6:0.214861 7:1 8:1 9:1 10:1 11:1 12:1 13:0.815627 14:0.249196 15:0.173477 16:0.966417 17:0.785042 18:0.770279 19:0.822693 
1 1:1 2:0.724963 3:0.765698 4:0.643856 5:0.386373 6:0.34023 7:1 8:1 9:1 10:1 11:1 12:1 13:0.815627 14:0.421677 15:0.261838 16:0.966417 17:0.868672 18:0.790358 19:0.819792 
1 1:1 2:0.62239 3:0.678317 4:0.643856 5:0.272599 6:0.247279 7:1 8:1 9:1 10:1 11:1 12:1 13:0.815627 14:0.304017 15:0.200204 16:0.966417 17:0.811473 18:0.774447 19:0.819226 
1 1:1 2:0.488073 3:0.563893 4:0.643856 5:0.171579 6:0.166399 7:1 8:1 9:1 10:1 11:1 12:1 13:0.815627 14:0.187546 15:0.14162 16:0.966417 17:0.737245 18:0.755665 19:0.812128 
1 1:1 2:0.468741 3:0.547424 4:0.643856 5:0.157838 6:0.155059 7:1 8:1 9:1 10:1 11:1 12:1 13:0.815627 14:0.168887 15:0.131549 16:0.966417 17:0.722991 18:0.750634 19:0.804717 
1 1:1 2:0.731008 3:0.770848 4:0.643856 5:0.329786 6:0.29002 7:1 8:1 9:1 10:1 11:1 12:1 13:0.815627 14:0.367191 15:0.226768 16:0.966417 17:0.84242 18:0.769499 19:0.784667 
1 1:1 2:0.513472 3:0.58553 4:0.643856 5:0.167447 6:0.159136 7:1 8:1 9:1 10:1 11:1 12:1 13:0.815627 14:0.170838 15:0.126153 16:0.966417 17:0.726066 18:0.740914 19:0.776157 
1 1:1 2:0.403679 3:0.491998 4:0.643856 5:0.111233 6:0.115584 7:1 8:1 9:1 10:1 11:1 12:1 13:0.815627 14:0.121637 15:0.104485 16:0.966417 17:0.667761 18:0.728443 19:0.774944 
1 1:1 2:0.477394 3:0.554795 4:0.643856 5:0.141808 6:0.137579 7:1 8:1 9:1 10:1 11:1 12:1 13:0.815627 14:0.14297 15:0.110511 16:0.966417 17:0.696621 18:0.729367 19:0.759031 
1 1:1 2:0.619731 3:0.676052 4:0.643856 5:0.206686 6:0.187569 7:1 8:1 9:1 10:1 11:1 12:1 13:0.815627 14:0.216307 15:0.144086 16:0.966417 17:0.764323 18:0.74057 19:0.757953 
1 1:1 2:0.62239 3:0.678317 4:0.643856 5:0.201444 6:0.182817 7:1 8:1 9:1 10:1 11:1 12:1 13:0.815627 14:0.215487 15:0.142989 16:0.966417 17:0.762317 18:0.738292 19:0.754912 
1 1:1 2:0.589487 3:0.650287 4:0.643856 5:0.156722 6:0.14412 7:1 8:1 9:1 10:1 11:1 12:1 13:0.815627 14:0.169224 15:0.115192 16:0.966417 17:0.722359 18:0.717352 19:0.724097 
-1 1:0.5 2:0.434638 3:0.444319 4:0.584963 5:0.488902 6:0.446431 7:1 8:1 9:1 10:1 11:1 12:1 13:0.692307 14:0.581836 15:0.391215 16:0.575079 17:0.893372 18:0.633786 19:0.718221 
1 1:1 2:0.403679 3:0.491998 4:0.643856 5:0.0860088 6:0.089414 7:1 8:1 9:1 10:1 11:1 12:1 13:0.815627 14:0.0940707 15:0.0808405 16:0.966417 17:0.626859 18:0.698058 19:0.717091 
1 1:1 2:0.779374 3:0.81205 4:0.526069 5:0.276679 6:0.24091 7:1 8:1 9:1 10:1 11:1 12:1 13:0.690146 14:0.29405 15:0.178588 16:0.940364 17:0.813228 18:0.735929 19:0.713431 
1 1:1 2:0.670581 3:0.71937 4:0.643856 5:0.185469 6:0.165776 7:1 8:1 9:1 10:1 11:1 12:1 13:0.815627 14:0.204454 15:0.13074 16:0.966417 17:0.749736 18:0.716491 19:0.706711 
1 1:1 2:0.684152 3:0.730931 4:0.643856 5:0.196494 6:0.174798 7:1 8:1 9:1 10:1 11:1 12:1 13:0.815627 14:0.206122 15:0.131402 16:0.966417 17:0.756438 18:0.718143 19:0.70363 
1 1:1 2:0.631684 3:0.686234 4:0.643856 5:0.142995 6:0.129356 7:1 8:1 9:1 10:1 11:1 12:1 13:0.815627 14:0.161085 15:0.105215 16:0.966417 17:0.706886 18:0.694769 19:0.675832 
1 1:1 2:0.513472 3:0.58553 4:0.643856 5:0.106014 6:0.100815 7:1 8:1 9:1 10:1 11:1 12:1 13:0.815627 14:0.108191 15:0.0799345 16:0.966417 17:0.652652 18:0.686615 19:0.672349 
1 1:1 2:0.468741 3:0.547424 4:0.643856 5:0.0865448 6:0.085101 7:1 8:1 9:1 10:1 11:1 12:1 13:0.815627 14:0.0926446 15:0.0722217 16:0.966417 17:0.6269 18:0.679426 19:0.66945 
1 1:1 2:0.600399 3:0.659583 4:0.643856 5:0.111011 6:0.101638 7:1 8:1 9:1 10:1 11:1 12:1 13:0.815627 14:0.124228 15:0.0832145 16:0.966417 17:0.666929 18:0.673296 19:0.640443 
1 1:1 2:0.633303 3:0.687613 4:0.643856 5:0.112648 6:0.101922 7:1 8:1 9:1 10:1 11:1 12:1 13:0.815627 14:0.121932 15:0.0801801 16:0.966417 17:0.669517 18:0.666768 19:0.620482 
1 1:1 2:0.536337 3:0.605008 4:0.643856 5:0.0835395 6:0.0788026 7:1 8:1 9:1 10:1 11:1 12:1 13:0.815627 14:0.0899473 15:0.0644882 16:0.966417 17:0.621672 18:0.656858 19:0.614749 
-1 1:0.5 2:0.375695 3:0.394105 4:0.192645 5:0.242259 6:0.228482 7:1 8:1 9:1 10:1 11:1 12:1 13:0.242594 14:0.255886 15:0.181044 16:0.399078 17:0.791107 18:0.532461 19:0.612251 
-1 1:0.5 2:0.387648 3:0.404288 4:0.263034 5:0.227303 6:0.205768 7:1 8:1 9:1 10:1 11:1 12:1 13:0.372071 14:0.295339 15:0.192305 16:0.521641 17:0.699326 18:0.53664 19:0.609945 
1 1:1 2:0.587186 3:0.648326 4:0.38529 5:0.0904893 6:0.0832072 7:1 8:1 9:1 10:1 11:1 12:1 13:0.529121 14:0.102619 15:0.0691926 16:0.901076 17:0.633491 18:0.651785 19:0.601402 
1 1:0.5 2:0.330964 3:0.355999 4:0.263034 5:0.125159 6:0.118751 7:1 8:1 9:1 10:1 11:1 12:1 13:0.372071 14:0.159611 15:0.114044 16:0.521641 17:0.635133 18:0.50872 19:0.576272 
0.8903141287301237 1:0.5 2:0.74627 3:0.709796 4:0.321928 5:0.273314 6:0.232864 7:1 8:1 9:1 10:1 11:1 12:1 13:0.438304 14:0.331353 15:0.191256 16:0.534663 17:0.792704 18:0.536571 19:0.573203 
1 1:1 2:0.872897 3:0.891722 4:0.444785 5:0.178302 6:0.153143 7:1 8:1 9:1 10:1 11:1 12:1 13:0.598788 14:0.192725 15:0.113313 16:0.919076 17:0.743176 18:0.661058 19:0.572503 
-0.2305276466795501 1:0.5 2:0.50922 3:0.507855 4:1 5:1 6:0.861048 7:1 8:1 9:1 10:1 11:1 12:1 13:0.911175 14:0.851658 15:0.509164 16:0.512709 17:0.861739 18:0.559507 19:0.571995 
-1 1:1 2:1 3:1 4:0.643856 5:0.246669 6:0.20921 7:1 8:1 9:1 10:1 11:1 12:1 13:0.815627 14:0.282193 15:0.160877 16:0.966417 17:0.792737 18:0.666523 19:0.562501 
1 1:0.5 2:0.572415 3:0.56169 4:0.415037 5:0.232115 6:0.202761 7:1 8:1 9:1 10:1 11:1 12:1 13:0.464977 14:0.224047 15:0.136902 16:0.448556 17:0.762376 18:0.489928 19:0.55418 
1 1:1 2:0.511916 3:0.767874 4:0.830075 5:0.209423 6:0.269498 7:1 8:1 9:1 10:1 11:1 12:1 13:0.944099 14:0.380008 15:0.503894 16:1 17:0.947289 18:1 19:1 
-1 1:0.5 2:0.297158 3:0.425137 4:0.192645 5:0.103495 6:0.124217 7:1 8:1 9:1 10:1 11:1 12:1 13:0.313157 14:0.270453 15:0.315141 16:0.603941 17:0.650587 18:0.646369 19:0.6889 
0.9319441396964894 1:0 2:1 3:1 4:0 5:0.18791 6:0.182368 7:1 8:1 9:1 10:1 11:1 12:1 13:0 14:0.341254 15:0.296488 16:0 17:0.934259 18:0.404904 19:0.523334 
-1 1:0 2:0.850274 3:0.850274 4:0 5:0.182166 6:0.176832 7:1 8:1 9:1 10:1 11:1 12:1 13:0 14:0.330896 15:0.287552 16:0 17:0.930529 18:0.4033 19:0.513077 
-1 1:0 2:0.661642 3:0.661642 4:0 5:0.181006 6:0.174129 7:1 8:1 9:1 10:1 11:1 12:1 13:0 14:0.328805 15:0.283187 16:0 17:0.929761 18:0.402498 19:0.493211 
-1 1:0 2:0.511916 3:0.511916 4:0 5:0.10691 6:0.103478 7:1 8:1 9:1 10:1 11:1 12:1 13:0 14:0.194766 15:0.168763 16:0 17:0.866632 18:0.375462 19:0.447322 
-1 1:0 2:0.405684 3:0.405684 4:0 5:0.160125 6:0.154295 7:1 8:1 9:1 10:1 11:1 12:1 13:0 14:0.291108 15:0.251129 16:0 17:0.915042 18:0.396206 19:0.423019 
-1 1:0 2:0.405684 3:0.405684 4:0 5:0.103136 6:0.0998377 7:1 8:1 9:1 10:1 11:1 12:1 13:0 14:0.187918 15:0.16285 16:0 17:0.862333 18:0.373606 19:0.418903 
-1 1:0 2:0.553116 3:0.553116 4:0 5:0.0598581 6:0.0580783 7:1 8:1 9:1 10:1 11:1 12:1 13:0 14:0.102377 15:0.0889251 16:0 17:0.79602 18:0.344993 19:0.411936 
-0.8908421075998242 1:0 2:0.4588 3:0.4588 4:0 5:0.202065 6:0.195798 7:1 8:1 9:1 10:1 11:1 12:1 13:0 14:0.522907 15:0.453619 16:0 17:0.691023 18:0.299423 19:0.388932 
-1 1:0 2:0.661642 3:0.661642 4:0 5:0.0353903 6:0.0343448 7:1 8:1 9:1 10:1 11:1 12:1 13:0 14:0.0646541 15:0.0561697 16:0 17:0.735224 18:0.318659 19:0.386967 
-1 1:0 2:0.405684 3:0.405684 4:0 5:0.036784 6:0.0356651 7:1 8:1 9:1 10:1 11:1 12:1 13:0 14:0.0671966 15:0.0583259 16:0 17:0.739777 18:0.320586 19:0.355061 
-0.9178212386724934 1:0 2:0.330821 3:0.330821 4:0 5:0.0638471 6:0.0618427 7:1 8:1 9:1 10:1 11:1 12:1 13:0 14:0.0993995 15:0.086191 16:0 17:0.797696 18:0.34563 19:0.34278 
1 1:0.75 2:0.440373 3:0.609449 4:0.965784 5:0.176563 6:0.207216 7:1 8:1 9:1 10:1 11:1 12:1 13:1 14:0.207558 15:0.273764 16:0.846062 17:0.833071 18:0.893704 19:0.944438 
-1 1:0.5 2:0.281793 3:0.39451 4:0.830075 5:0.0921854 6:0.117173 7:1 8:1 9:1 10:1 11:1 12:1 13:0.800283 14:0.102528 15:0.155038 16:0.565467 17:0.660188 18:0.636045 19:0.672448 
1 1:0.5 2:0.243578 3:0.356295 4:0.38529 5:0.19141 6:0.239506 7:1 8:1 9:1 10:1 11:1 12:1 13:0.420655 14:0.228336 15:0.331625 16:0.506579 17:0.622472 18:0.649505 19:0.649803 
-0.9390693022210613 1:0.5 2:0.225434 3:0.338151 4:0.643856 5:0.24043 6:0.313094 7:1 8:1 9:1 10:1 11:1 12:1 13:0.651176 14:0.283022 15:0.437778 16:0.545473 17:0.646218 18:0.675779 19:0.641806 
-0.003836060152225216 1:0.5 2:0.225434 3:0.338151 4:0.643856 5:0.0656228 6:0.0864619 7:1 8:1 9:1 10:1 11:1 12:1 13:0.651176 14:0.0775996 15:0.121363 16:0.545473 17:0.517168 18:0.568133 19:0.600814 
-1 1:0.5 2:0.347728 3:0.460445 4:0.38529 5:0.111656 6:0.124064 7:1 8:1 9:1 10:1 11:1 12:1 13:0.420655 14:0.136105 15:0.161718 16:0.506579 17:0.562461 18:0.568439 19:0.598727 
-1 1:0.25 2:0.389262 3:0.445621 4:0.584963 5:0.291316 6:0.306148 7:1 8:1 9:1 10:1 11:1 12:1 13:0.554428 14:0.324246 15:0.357999 16:0.324663 17:0.855518 18:0.562579 19:0.595895 
1 1:0.25 2:0.332904 3:0.389262 4:0.321928 5:0.232091 6:0.256021 7:1 8:1 9:1 10:1 11:1 12:1 13:0.348824 14:0.210622 15:0.269522 16:0.300589 17:1 18:0.632061 19:0.595871 
-0.3839288833156263 1:0.5 2:0.299936 3:0.412653 4:0.830075 5:0.0889723 6:0.102819 7:1 8:1 9:1 10:1 11:1 12:1 13:0.800283 14:0.100516 15:0.129273 16:0.565467 17:0.53316 18:0.55887 19:0.583303 
-1 1:0.25 2:0.360262 3:0.41662 4:0.415037 5:0.135607 6:0.146277 7:1 8:1 9:1 10:1 11:1 12:1 13:0.426891 14:0.15252 15:0.176962 16:0.310583 17:0.786671 18:0.525366 19:0.582506 
1 1:0.5 2:0.759872 3:0.872589 4:0.643856 5:0.102752 6:0.104928 7:1 8:1 9:1 10:1 11:1 12:1 13:0.651176 14:0.123876 15:0.127465 16:0.545473 17:0.75325 18:0.585279 19:0.564914 
-1 1:0.5 2:0.505947 3:0.618664 4:0.643856 5:0.101598 6:0.107014 7:1 8:1 9:1 10:1 11:1 12:1 13:0.651176 14:0.121389 15:0.131949 16:0.545473 17:0.618381 18:0.559398 19:0.562827 
-1 1:0.5 2:0.44145 3:0.554168 4:0.444785 5:0.0758823 6:0.0814413 7:1 8:1 9:1 10:1 11:1 12:1 13:0.47656 14:0.0923487 15:0.103454 16:0.517292 17:0.573791 18:0.540394 19:0.540035 
1 1:0.25 2:0.427478 3:0.483836 4:0.415037 5:0.106419 6:0.111003 7:1 8:1 9:1 10:1 11:1 12:1 13:0.421197 14:0.129542 15:0.139173 16:0.304226 17:0.750089 18:0.489898 19:0.531801 
-1 1:0.25 2:0.225434 3:0.281793 4:0.321928 5:0.0923457 6:0.109139 7:1 8:1 9:1 10:1 11:1 12:1 13:0.348824 14:0.110706 15:0.149678 16:0.300589 17:0.724018 18:0.507117 19:0.530965 
1 1:0.5 2:0.790036 3:0.902753 4:0.526069 5:0.114375 6:0.1158 7:1 8:1 9:1 10:1 11:1 12:1 13:0.550021 14:0.141057 15:0.142864 16:0.529964 17:0.729622 18:0.565031 19:0.528524 
1 1:0 2:1 3:1 4:0 5:0.253331 6:0.251121 7:1 8:1 9:1 10:1 11:1 12:1 13:0 14:0.297432 15:0.290551 16:0 17:0.965756 18:0.40622 19:0.522804 
1 1:0.25 2:0.698775 3:0.755134 4:0.584963 5:0.150953 6:0.151911 7:1 8:1 9:1 10:1 11:1 12:1 13:0.547763 14:0.184895 15:0.185674 16:0.31831 17:0.775489 18:0.480834 19:0.513363 
0.962614694029244 1:0 2:0.445621 3:0.445621 4:0 5:0.180052 6:0.177845 7:1 8:1 9:1 10:1 11:1 12:1 13:0 14:0.179845 15:0.175059 16:0 17:0.978246 18:0.411179 19:0.470559 
-1 1:0.5 2:0.527872 3:0.64059 4:0.830075 5:0.0695194 6:0.0722564 7:1 8:1 9:1 10:1 11:1 12:1 13:0.800283 14:0.0852727 15:0.0903423 16:0.565467 17:0.546048 18:0.501866 19:0.466264 
-0.8776943059953681 1:0.25 2:0.356295 3:0.412653 4:0.415037 5:0.145103 6:0.150285 7:1 8:1 9:1 10:1 11:1 12:1 13:0.421197 14:0.181639 15:0.192262 16:0.304226 17:0.559099 18:0.412994 19:0.45064 
-1 1:0.25 2:0.39451 3:0.450869 4:0.321928 5:0.0692626 6:0.0731904 7:1 8:1 9:1 10:1 11:1 12:1 13:0.307321 14:0.0796442 15:0.086721 16:0.251242 17:0.595224 18:0.394852 19:0.448397 
-1 1:0 2:0.677524 3:0.677524 4:0 5:0.138364 6:0.137239 7:1 8:1 9:1 10:1 11:1 12:1 13:0 14:0.123389 15:0.120605 16:0 17:0.828538 18:0.348569 19:0.427226 
1 1:0 2:0.347728 3:0.347728 4:0 5:0.132868 6:0.131172 7:1 8:1 9:1 10:1 11:1 12:1 13:0 14:0.130741 15:0.127196 16:0 17:0.91003 18:0.382452 19:0.419819 
-1 1:0 2:0.434764 3:0.434764 4:0 5:0.0817831 6:0.0810089 7:1 8:1 9:1 10:1 11:1 12:1 13:0 14:0.0910898 15:0.0889156 16:0 17:0.790573 18:0.332494 19:0.413346 
1 1:0 2:0.543514 3:0.543514 4:0 5:0.0530984 6:0.0526554 7:1 8:1 9:1 10:1 11:1 12:1 13:0 14:0.0591018 15:0.0577564 16:0 17:0.726237 18:0.305531 19:0.409347 
-1 1:0 2:0.389262 3:0.389262 4:0 5:0.159111 6:0.157302 7:1 8:1 9:1 10:1 11:1 12:1 13:0 14:0.188588 15:0.183734 16:0 17:0.807658 18:0.339546 19:0.408937 
1 1:0 2:0.52537 3:0.52537 4:0 5:0.0819762 6:0.081272 7:1 8:1 9:1 10:1 11:1 12:1 13:0 14:0.0938849 15:0.091725 16:0 17:0.745104 18:0.313444 19:0.397093 
-1 1:0 2:0.476298 3:0.476298 4:0 5:0.0628241 6:0.0622719 7:1 8:1 9:1 10:1 11:1 12:1 13:0 14:0.0643795 15:0.0628855 16:0 17:0.743895 18:0.312921 19:0.394453 
1 1:0 2:0.383653 3:0.383653 4:0 5:0.0709433 6:0.0702681 7:1 8:1 9:1 10:1 11:1 12:1 13:0 14:0.0819554 15:0.0799952 16:0 17:0.75073 18:0.315735 19:0.389349 
-1 1:0 2:0.371119 3:0.371119 4:0 5:0.0701334 6:0.0694942 7:1 8:1 9:1 10:1 11:1 12:1 13:0 14:0.0695063 15:0.0678712 16:0 17:0.782027 18:0.32893 19:0.389185 
-1 1:0 2:0.491122 3:0.491122 4:0 5:0.0604813 6:0.0599821 7:1 8:1 9:1 10:1 11:1 12:1 13:0 14:0.0593444 15:0.0579986 16:0 17:0.734251 18:0.30891 19:0.388357 
-1 1:0 2:0.684599 3:0.684599 4:0 5:0.0599796 6:0.0594639 7:1 8:1 9:1 10:1 11:1 12:1 13:0 14:0.0622303 15:0.0607981 16:0 17:0.693792 18:0.291865 19:0.383516 
-0.9878801258098641 1:0 2:0.404087 3:0.404087 4:0 5:0.0447652 6:0.044389 7:1 8:1 9:1 10:1 11:1 12:1 13:0 14:0.0475086 15:0.0464242 16:0 17:0.710295 18:0.298822 19:0.379646 
-1 1:1 2:1 3:1 4:0.709511 5:0.549033 6:0.542524 7:1 8:1 9:1 10:1 11:1 12:1 13:0.861558 14:0.376952 15:0.371606 16:1 17:0.933894 18:1 19:1 
-1 1:0.5 2:0.83988 3:0.793273 4:0.5 5:0.334945 6:0.331457 7:1 8:1 9:1 10:1 11:1 12:1 13:0.475789 14:0.188265 15:0.185528 16:0.402702 17:0.976427 18:0.726758 19:0.82295 
-1 1:0.5 2:0.457283 3:0.463141 4:0.190091 5:0.357816 6:0.374201 7:1 8:1 9:1 10:1 11:1 12:1 13:0.241494 14:0.210531 15:0.235081 16:0.41311 17:0.913 18:0.778914 19:0.810995 
-1 1:0.5 2:0.26396 3:0.296328 4:0.354756 5:0.205556 6:0.237427 7:1 8:1 9:1 10:1 11:1 12:1 13:0.503349 14:0.194954 15:0.248459 16:0.621366 17:0.667423 18:0.741277 19:0.802756 
-1 1:0.5 2:0.26396 3:0.296328 4:0.354756 5:0.160428 6:0.185562 7:1 8:1 9:1 10:1 11:1 12:1 13:0.503349 14:0.15242 15:0.194468 16:0.621366 17:0.639242 18:0.717639 19:0.796923 
-1 1:0.5 2:0.490262 3:0.491597 4:0.5 5:0.476721 6:0.48501 7:1 8:1 9:1 10:1 11:1 12:1 13:0.535672 14:0.27299 15:0.287462 16:0.478364 17:0.874546 18:0.750251 19:0.76556 
0.9629023185114655 1:0.5 2:0.42288 3:0.433455 4:0.22483 5:0.265482 6:0.278783 7:1 8:1 9:1 10:1 11:1 12:1 13:0.279171 14:0.157239 15:0.176121 16:0.423938 17:0.830216 18:0.723568 19:0.752251 
-1 1:0.5 2:0.34342 3:0.364891 4:0.5 5:0.131673 6:0.140142 7:1 8:1 9:1 10:1 11:1 12:1 13:0.646891 14:0.132443 15:0.146291 16:0.645288 17:0.587229 18:0.660129 19:0.733743 
-1 1:0.5 2:0.26396 3:0.296328 4:0.354756 5:0.276914 6:0.296737 7:1 8:1 9:1 10:1 11:1 12:1 13:0.503349 14:0.291456 15:0.323729 16:0.621366 17:0.514405 18:0.646857 19:0.719901 
-0.9805932750316976 1:0.5 2:0.251882 3:0.285906 4:0.22483 5:0.255172 6:0.275823 7:1 8:1 9:1 10:1 11:1 12:1 13:0.352985 14:0.268872 15:0.303073 16:0.591144 17:0.509624 18:0.645092 19:0.718377 
-1 1:0.5 2:0.26396 3:0.296328 4:0.5 5:0.231059 6:0.248139 7:1 8:1 9:1 10:1 11:1 12:1 13:0.646891 14:0.243768 15:0.271249 16:0.645288 17:0.503824 18:0.635196 19:0.707305 
-1 1:0.5 2:0.349013 3:0.369718 4:0.5 5:0.175125 6:0.190443 7:1 8:1 9:1 10:1 11:1 12:1 13:0.535672 14:0.118824 15:0.137894 16:0.478364 17:0.681174 18:0.637703 19:0.697401 
-1 1:0.5 2:0.15892 3:0.205691 4:0.27517 5:0.1435 6:0.20522 7:1 8:1 9:1 10:1 11:1 12:1 13:0.414336 14:0.112836 15:0.21701 16:0.604355 17:0.650346 18:0.748847 19:0.694966 
-1 1:0.5 2:0.428473 3:0.438281 4:0.27517 5:0.240124 6:0.256997 7:1 8:1 9:1 10:1 11:1 12:1 13:0.331208 14:0.130475 15:0.15396 16:0.437191 17:0.678126 18:0.64198 19:0.685646 
0.8553013531539936 1:0 2:0.852304 3:0.73543 4:0 5:0.237291 6:0.229506 7:1 8:1 9:1 10:1 11:1 12:1 13:0 14:0.164458 15:0.155569 16:0 17:0.905106 18:0.505245 19:0.684226 
-1 1:0.5 2:0.389901 3:0.404999 4:0.5 5:0.368074 6:0.387736 7:1 8:1 9:1 10:1 11:1 12:1 13:0.475789 14:0.224275 15:0.244383 16:0.402702 17:0.729065 18:0.636933 19:0.683152 
-1 1:0.5 2:0.44846 3:0.455528 4:0.5 5:0.20189 6:0.216803 7:1 8:1 9:1 10:1 11:1 12:1 13:0.524211 14:0.109829 15:0.129127 16:0.463589 17:0.66476 18:0.621255 19:0.677366 
-0.9333696880274629 1:0.5 2:0.381992 3:0.398174 4:0.5 5:0.358067 6:0.359316 7:1 8:1 9:1 10:1 11:1 12:1 13:0.646891 14:0.375311 15:0.376366 16:0.645288 17:0.529454 18:0.628308 19:0.675584 
-1 1:0.5 2:0.632961 3:0.614728 4:0.5 5:0.429036 6:0.429364 7:1 8:1 9:1 10:1 11:1 12:1 13:0.524211 14:0.242513 15:0.246228 16:0.463589 17:0.698923 18:0.627151 19:0.668946 
-0.9043521052757502 1:0.5 2:0.428473 3:0.438281 4:0.354756 5:0.418344 6:0.414558 7:1 8:1 9:1 10:1 11:1 12:1 13:0.503349 14:0.437155 15:0.429905 16:0.621366 17:0.538582 18:0.62495 19:0.655196 
-1 1:0.5 2:0.349013 3:0.369718 4:0.5 5:0.226557 6:0.230225 7:1 8:1 9:1 10:1 11:1 12:1 13:0.646891 14:0.239074 15:0.244356 16:0.645288 17:0.502675 18:0.608152 19:0.653679 
0.9950171061062283 1:0 2:0.651545 3:0.5622 4:0 5:0.197151 6:0.190568 7:1 8:1 9:1 10:1 11:1 12:1 13:0 14:0.112708 15:0.106552 16:0 17:0.995751 18:0.555792 19:0.652649 
-1 1:0.5 2:0.476759 3:0.479946 4:0.27517 5:0.171339 6:0.180472 7:1 8:1 9:1 10:1 11:1 12:1 13:0.331208 14:0.0926963 15:0.105707 16:0.437191 17:0.618614 18:0.591622 19:0.648297 
-1 1:0.5 2:0.476759 3:0.479946 4:0.5 5:0.346546 6:0.354793 7:1 8:1 9:1 10:1 11:1 12:1 13:0.524211 14:0.197643 15:0.209984 16:0.463589 17:0.648889 18:0.609498 19:0.640757 
-1 1:0.5 2:0.597197 3:0.583868 4:0.5 5:0.235002 6:0.231254 7:1 8:1 9:1 10:1 11:1 12:1 13:0.646891 14:0.24381 15:0.236981 16:0.645288 17:0.598315 18:0.626175 19:0.62852 
-0.8028843843584738 1:0.5 2:0.389901 3:0.404999 4:0.145244 5:0.725217 6:0.753963 7:1 8:1 9:1 10:1 11:1 12:1 13:0.190406 14:0.408196 15:0.464602 16:0.396029 17:0.676954 18:0.674548 19:0.622723 
-1 1:0.5 2:0.518362 3:0.515844 4:0.5 5:0.20372 6:0.201567 7:1 8:1 9:1 10:1 11:1 12:1 13:0.646891 14:0.213023 15:0.208825 16:0.645288 17:0.585788 18:0.624194 19:0.621126 
-1 1:0.5 2:0.487032 3:0.488811 4:0.5 5:0.134481 6:0.141943 7:1 8:1 9:1 10:1 11:1 12:1 13:0.524211 14:0.072323 15:0.0822536 16:0.463589 17:0.585639 18:0.557569 19:0.619236 
-1 1:0.5 2:0.364321 3:0.382926 4:0.22483 5:0.0598931 6:0.0675063 7:1 8:1 9:1 10:1 11:1 12:1 13:0.241571 14:0.0420337 15:0.0494275 16:0.348336 17:0.6576 18:0.557806 19:0.617287 
-1 1:0.5 2:0.389901 3:0.404999 4:0.27517 5:0.218589 6:0.218733 7:1 8:1 9:1 10:1 11:1 12:1 13:0.414336 14:0.23076 15:0.230331 16:0.604355 17:0.500584 18:0.593755 19:0.615774 
-0.9935838573930532 1:1 2:0.797473 3:0.825245 4:1 5:0.281547 6:0.281038 7:1 8:1 9:1 10:1 11:1 12:1 13:1 14:0.15032 15:0.151514 16:0.866292 17:0.538597 18:0.661948 19:0.61331 
-1 1:0.5 2:0.26396 3:0.296328 4:0.22483 5:0.195204 6:0.224565 7:1 8:1 9:1 10:1 11:1 12:1 13:0.241571 14:0.12105 15:0.151162 16:0.348336 17:0.659605 18:0.602353 19:0.606941 
-1 1:0.5 2:0.26396 3:0.296328 4:0.22483 5:0.239201 6:0.274535 7:1 8:1 9:1 10:1 11:1 12:1 13:0.241571 14:0.148289 15:0.184747 16:0.348336 17:0.683163 18:0.62187 19:0.606941 
-1 1:0.5 2:0.83988 3:0.793273 4:0.5 5:0.219844 6:0.217316 7:1 8:1 9:1 10:1 11:1 12:1 13:0.524211 14:0.124175 15:0.12279 16:0.463589 17:0.63283 18:0.552324 19:0.605318 
-1 1:0.5 2:0.386015 3:0.401645 4:0.5 5:0.19403 6:0.194564 7:1 8:1 9:1 10:1 11:1 12:1 13:0.646891 14:0.205095 15:0.205261 16:0.645288 17:0.493628 18:0.587186 19:0.605156 
-1 1:0 2:0.494941 3:0.427071 4:0 5:0.159366 6:0.154248 7:1 8:1 9:1 10:1 11:1 12:1 13:0 14:0.117805 15:0.111518 16:0 17:0.83013 18:0.463468 19:0.601849 
-1 1:0 2:0.364321 3:0.314362 4:0 5:0.163367 6:0.156825 7:1 8:1 9:1 10:1 11:1 12:1 13:0 14:0.104954 15:0.0985391 16:0 17:1 18:0.557287 19:0.601122 
-1 1:0.5 2:0.364321 3:0.382926 4:0.22483 5:0.0850239 6:0.0938254 7:1 8:1 9:1 10:1 11:1 12:1 13:0.241571 14:0.0505568 15:0.0595558 16:0.348336 17:0.678548 18:0.575783 19:0.600334 
-0.6678504220519313 1:0 2:0.639207 3:0.551554 4:0 5:0.348941 6:0.337792 7:1 8:1 9:1 10:1 11:1 12:1 13:0 14:0.213845 15:0.202466 16:0 17:0.865111 18:0.483006 19:0.598074 
-1 1:0 2:0.474954 3:0.409825 4:0 5:0.246884 6:0.238838 7:1 8:1 9:1 10:1 11:1 12:1 13:0 14:0.156498 15:0.148073 16:0 17:0.899515 18:0.502147 19:0.597442 
-1 1:0.5 2:0.410802 3:0.423033 4:0.22483 5:0.642469 6:0.661664 7:1 8:1 9:1 10:1 11:1 12:1 13:0.271856 14:0.362081 15:0.394048 16:0.409167 17:0.601687 18:0.610881 19:0.59405 
-1 1:0.5 2:0.284861 3:0.314362 4:0.190091 5:0.155909 6:0.174742 7:1 8:1 9:1 10:1 11:1 12:1 13:0.208042 14:0.0938135 15:0.113282 16:0.337531 17:0.625398 18:0.570281 19:0.590013 
1 1:0 2:0.569722 3:0.491597 4:0 5:0.181786 6:0.175746 7:1 8:1 9:1 10:1 11:1 12:1 13:0 14:0.105514 15:0.0997684 16:0 17:0.913222 18:0.509753 19:0.580987 
-1 1:0 2:0.436382 3:0.376542 4:0 5:0.193935 6:0.187365 7:1 8:1 9:1 10:1 11:1 12:1 13:0 14:0.127646 15:0.120613 16:0 17:0.861753 18:0.480943 19:0.579084 
1 1:0 2:0.837441 3:0.722604 4:0 5:0.315396 6:0.305425 7:1 8:1 9:1 10:1 11:1 12:1 13:0 14:0.171964 15:0.16287 16:0 17:0.871278 18:0.486485 19:0.573606 
-1 1:1 2:0.451594 3:0.559978 4:0.33985 5:0.353779 6:0.410469 7:1 8:1 9:1 10:1 11:1 12:1 13:0.467792 14:0.321202 15:0.463537 16:1 17:1 18:0.995438 19:1 
-0.5270777568327276 1:1 2:0.36932 3:0.483464 4:0.230954 5:0.548345 6:0.642417 7:1 8:1 9:1 10:1 11:1 12:1 13:0.330122 14:0.478564 15:0.733863 16:0.943087 17:0.9034 18:1 19:0.921297 
-1 1:1 2:0.461325 3:0.569028 4:0.304006 5:0.158232 6:0.184754 7:1 8:1 9:1 10:1 11:1 12:1 13:0.423535 14:0.138934 15:0.204014 16:0.983465 17:0.805715 18:0.865079 19:0.872728 
0.9879531033675126 1:0.5 2:0.454935 3:0.493088 4:0.321928 5:0.275768 6:0.294116 7:1 8:1 9:1 10:1 11:1 12:1 13:0.372278 14:0.219525 15:0.260305 16:0.487915 17:0.884689 18:0.602019 19:0.622195 
-1 1:0.5 2:0.488614 3:0.524409 4:0.321928 5:0.407125 6:0.422573 7:1 8:1 9:1 10:1 11:1 12:1 13:0.425469 14:0.305054 15:0.348637 16:0.588575 17:0.807541 18:0.619478 19:0.604745 
-1 1:0.5 2:0.586652 3:0.615585 4:0.584963 5:0.692396 6:0.704365 7:1 8:1 9:1 10:1 11:1 12:1 13:0.678542 14:0.502578 15:0.537495 16:0.637227 17:0.871608 18:0.639856 19:0.604704 
-1 1:0.5 2:0.386059 3:0.429033 4:0.137504 5:0.311618 6:0.335489 7:1 8:1 9:1 10:1 11:1 12:1 13:0.181865 14:0.276982 15:0.336416 16:0.44444 17:0.798909 18:0.591572 19:0.592338 
-0.2901280532079664 1:0.5 2:0.798923 3:0.812998 4:0.192645 5:1 6:1 7:1 8:1 9:1 10:1 11:1 12:1 13:0.23825 14:1 15:1 16:0.448642 17:0.973948 18:0.605204 19:0.591888 
-1 1:0.5 2:0.475824 3:0.512515 4:0.584963 5:0.436072 6:0.455559 7:1 8:1 9:1 10:1 11:1 12:1 13:0.621681 14:0.415084 15:0.458782 16:0.557421 17:0.827552 18:0.593489 19:0.589138 
-1 1:0.5 2:0.330591 3:0.377448 4:0.321928 5:0.457689 6:0.5063 7:1 8:1 9:1 10:1 11:1 12:1 13:0.383699 14:0.429509 15:0.543561 16:0.50875 17:0.846736 18:0.631865 19:0.585331 
-1 1:0.5 2:0.532641 3:0.565355 4:0.321928 5:0.121016 6:0.128723 7:1 8:1 9:1 10:1 11:1 12:1 13:0.383699 14:0.109187 15:0.126459 16:0.50875 17:0.753869 18:0.530739 19:0.578927 
-1 1:0.5 2:0.35788 3:0.402826 4:0.584963 5:0.276702 6:0.301935 7:1 8:1 9:1 10:1 11:1 12:1 13:0.621681 14:0.264779 15:0.321292 16:0.557421 17:0.742953 18:0.567236 19:0.574191 
-0.7260545834000429 1:0.5 2:0.34509 3:0.390932 4:0.584963 5:0.561847 6:0.602872 7:1 8:1 9:1 10:1 11:1 12:1 13:0.621681 14:0.558006 15:0.650938 16:0.557421 17:0.806201 18:0.610118 19:0.573243 
-1 1:0.5 2:0.34509 3:0.390932 4:0.584963 5:0.445307 6:0.478224 7:1 8:1 9:1 10:1 11:1 12:1 13:0.621681 14:0.442869 15:0.516892 16:0.557421 17:0.764894 18:0.586052 19:0.573243 
-0.9969779589809876 1:0.5 2:0.286563 3:0.336502 4:0.152003 5:0.292002 6:0.325628 7:1 8:1 9:1 10:1 11:1 12:1 13:0.199211 14:0.288295 15:0.369275 16:0.451831 17:0.704285 18:0.565001 19:0.572979 
-1 1:0.5 2:0.539649 3:0.571873 4:0.584963 5:0.330382 6:0.342396 7:1 8:1 9:1 10:1 11:1 12:1 13:0.621681 14:0.299462 15:0.326331 16:0.557421 17:0.80457 18:0.568207 19:0.565669 
-1 1:0.5 2:0.313852 3:0.361881 4:0.584963 5:0.306655 6:0.337831 7:1 8:1 9:1 10:1 11:1 12:1 13:0.621681 14:0.30259 15:0.37243 16:0.557421 17:0.720593 18:0.565877 19:0.564582 
-1 1:0.5 2:0.486173 3:0.52214 4:0.584963 5:0.132363 6:0.140913 7:1 8:1 9:1 10:1 11:1 12:1 13:0.621681 14:0.125163 15:0.144085 16:0.557421 17:0.720738 18:0.52121 19:0.563368 
-1 1:0.5 2:0.837653 3:0.849017 4:0.584963 5:0.490542 6:0.493335 7:1 8:1 9:1 10:1 11:1 12:1 13:0.621681 14:0.470796 15:0.476175 16:0.557421 17:0.921886 18:0.581869 19:0.55821 
-1 1:0.5 2:0.607907 3:0.635352 4:0.584963 5:0.423942 6:0.432565 7:1 8:1 9:1 10:1 11:1 12:1 13:0.621681 14:0.402775 15:0.421646 16:0.557421 17:0.824162 18:0.567981 19:0.553721 
-1 1:0.5 2:0.454935 3:0.493088 4:0.584963 5:0.372612 6:0.386142 7:1 8:1 9:1 10:1 11:1 12:1 13:0.621681 14:0.370434 15:0.400231 16:0.557421 17:0.736703 18:0.546323 19:0.546602 
-1 1:0.5 2:0.313852 3:0.361881 4:0.584963 5:0.230467 6:0.254087 7:1 8:1 9:1 10:1 11:1 12:1 13:0.621681 14:0.22761 15:0.280294 16:0.557421 17:0.670801 18:0.536694 19:0.545357 
1 1:0.5 2:1 3:1 4:0.415037 5:0.267674 6:0.268952 7:1 8:1 9:1 10:1 11:1 12:1 13:0.459995 14:0.243283 15:0.245582 16:0.508112 17:0.887883 18:0.53392 19:0.534421 
-1 1:0.5 2:0.437094 3:0.476496 4:0.321928 5:0.160902 6:0.1719 7:1 8:1 9:1 10:1 11:1 12:1 13:0.383699 14:0.13976 15:0.164658 16:0.50875 17:0.683779 18:0.516168 19:0.530272 
-1 1:0.5 2:0.301063 3:0.349986 4:0.321928 5:0.165792 6:0.184742 7:1 8:1 9:1 10:1 11:1 12:1 13:0.383699 14:0.163072 15:0.205699 16:0.50875 17:0.622295 18:0.510346 19:0.525425 
-1 1:0.5 2:0.51236 3:0.546494 4:0.321928 5:0.318692 6:0.326842 7:1 8:1 9:1 10:1 11:1 12:1 13:0.383699 14:0.315623 15:0.333723 16:0.50875 17:0.719654 18:0.52487 19:0.521799 
1 1:0.5 2:0.486173 3:0.52214 4:0.321928 5:0.0974372 6:0.10368 7:1 8:1 9:1 10:1 11:1 12:1 13:0.383699 14:0.0910802 15:0.104973 16:0.50875 17:0.653277 18:0.484371 19:0.513016 
-1 1:0.5 2:0.301063 3:0.349986 4:0.321928 5:0.141911 6:0.158223 7:1 8:1 9:1 10:1 11:1 12:1 13:0.383699 14:0.13962 15:0.176207 16:0.50875 17:0.595871 18:0.494749 19:0.511539 
1 1:1 2:0.406872 3:0.475984 4:0.519702 5:0.490823 6:0.53996 7:1 8:1 9:1 10:1 11:1 12:1 13:0.511004 14:0.589736 15:0.716949 16:0.911291 17:0.947988 18:1 19:1 
-1 1:0.5 2:0.461611 3:0.466084 4:0.55034 5:0.17714 6:0.1805 7:1 8:1 9:1 10:1 11:1 12:1 13:0.637655 14:0.288308 15:0.294994 16:0.739167 17:0.773452 18:0.708038 19:0.787887 
1 1:0.5 2:0.236408 3:0.267122 4:0.709511 5:0.158853 6:0.187285 7:1 8:1 9:1 10:1 11:1 12:1 13:0.776073 14:0.254657 15:0.356543 16:0.760872 17:0.757625 18:0.735397 19:0.773097 
-1 1:0.5 2:0.401434 3:0.412919 4:0.44966 5:0.318549 6:0.317687 7:1 8:1 9:1 10:1 11:1 12:1 13:0.542488 14:0.588169 15:0.565531 16:0.722318 17:0.749047 18:0.704593 19:0.751387 
1 1:1 2:1 3:1 4:0.899321 5:0.258742 6:0.249987 7:1 8:1 9:1 10:1 11:1 12:1 13:0.831625 14:0.340028 15:0.30428 16:1 17:0.841795 18:0.758132 19:0.727686 
1 1:0.5 2:0.793719 3:0.759494 4:0.709511 5:0.32671 6:0.313933 7:1 8:1 9:1 10:1 11:1 12:1 13:0.539495 14:0.342971 15:0.303724 16:0.449667 17:0.801461 18:0.54808 19:0.610105 
-0.1637721136629539 1:0 2:0.922101 3:0.814657 4:0 5:0.445696 6:0.422427 7:1 8:1 9:1 10:1 11:1 12:1 13:0 14:0.629364 15:0.540097 16:0 17:0.963928 18:0.477763 19:0.605613 
1 1:0 2:0.802786 3:0.709245 4:0 5:0.437502 6:0.414657 7:1 8:1 9:1 10:1 11:1 12:1 13:0 14:0.68605 15:0.588739 16:0 17:0.960193 18:0.47591 19:0.603265 
1 1:0.5 2:0.930895 3:0.880686 4:0.55034 5:0.219253 6:0.209653 7:1 8:1 9:1 10:1 11:1 12:1 13:0.637655 14:0.349048 15:0.306168 16:0.739167 17:0.731561 18:0.620731 19:0.578506 
1 1:0 2:0.574656 3:0.507697 4:0 5:0.41372 6:0.391671 7:1 8:1 9:1 10:1 11:1 12:1 13:0 14:0.639639 15:0.548288 16:0 17:0.947184 18:0.469353 19:0.575696 
1 1:0 2:0.693061 3:0.612305 4:0 5:0.334126 6:0.316647 7:1 8:1 9:1 10:1 11:1 12:1 13:0 14:0.440559 15:0.378031 16:0 17:0.895858 18:0.444026 19:0.56862 
1 1:0 2:0.730894 3:0.645729 4:0 5:0.285659 6:0.270817 7:1 8:1 9:1 10:1 11:1 12:1 13:0 14:0.495902 15:0.425678 16:0 17:0.838394 18:0.415583 19:0.566309 
1 1:0 2:0.625935 3:0.553 4:0 5:0.300669 6:0.284719 7:1 8:1 9:1 10:1 11:1 12:1 13:0 14:0.413003 15:0.35411 16:0 17:0.87844 18:0.43532 19:0.557011 
1 1:0 2:0.494046 3:0.436479 4:0 5:0.575194 6:0.541554 7:1 8:1 9:1 10:1 11:1 12:1 13:0 14:0.743835 15:0.63411 16:0 17:1 18:0.494976 19:0.553255 
1 1:0.5 2:0.584951 3:0.575053 4:0.709511 5:0.164521 6:0.15954 7:1 8:1 9:1 10:1 11:1 12:1 13:0.776073 14:0.295657 15:0.267045 16:0.760872 17:0.607912 18:0.583268 19:0.551475 
-1 1:0.5 2:0.538761 3:0.534245 4:0.290489 5:0.143781 6:0.141987 7:1 8:1 9:1 10:1 11:1 12:1 13:0.243395 14:0.158361 15:0.148828 16:0.375733 17:0.671147 18:0.494644 19:0.547596 
1 1:0 2:0.579082 3:0.511607 4:0 5:0.321425 6:0.304476 7:1 8:1 9:1 10:1 11:1 12:1 13:0 14:0.451923 15:0.387611 16:0 17:0.876934 18:0.434606 19:0.545088 
-1 1:1 2:0.80303 3:0.915001 4:0.580977 5:0.554916 6:0.569827 7:1 8:1 9:1 10:1 11:1 12:1 13:0.680658 14:0.518224 15:0.570855 16:1 17:0.864444 18:0.988492 19:0.919812 
1 1:0.5 2:0.803705 3:0.822068 4:1 5:1 6:1 7:1 8:1 9:1 10:1 11:1 12:1 13:1 14:1 15:1 16:0.66223 17:1 18:0.777015 19:0.728116 
-1 1:0.5 2:0.609586 3:0.646108 4:0.55034 5:0.393823 6:0.40226 7:1 8:1 9:1 10:1 11:1 12:1 13:0.639003 14:0.474017 15:0.497432 16:0.619322 17:0.76496 18:0.673038 19:0.663676 
1 1:0.5 2:0.369965 3:0.428902 4:0.709511 5:0.508295 6:0.534214 7:1 8:1 9:1 10:1 11:1 12:1 13:0.777036 14:0.65784 15:0.743601 16:0.637149 17:0.57798 18:0.629878 19:0.623984 
-1 1:0.5 2:0.533532 3:0.577168 4:0.380182 5:0.45549 6:0.479984 7:1 8:1 9:1 10:1 11:1 12:1 13:0.383528 14:0.47222 15:0.53656 16:0.441584 17:0.842666 18:0.633552 19:0.618979 
-1 1:0.5 2:0.858816 3:0.872023 4:0.55034 5:0.422408 6:0.420106 7:1 8:1 9:1 10:1 11:1 12:1 13:0.639003 14:0.45073 15:0.436709 16:0.619322 17:0.826503 18:0.672378 19:0.616467 
1 1:0.5 2:0.473164 3:0.522447 4:0.44966 5:0.609051 6:0.646864 7:1 8:1 9:1 10:1 11:1 12:1 13:0.443155 14:0.544429 15:0.66147 16:0.45292 17:0.863752 18:0.656243 19:0.597622 
-0.03098500452300034 1:0.5 2:0.812215 3:0.829782 4:1 5:0.697866 6:0.694955 7:1 8:1 9:1 10:1 11:1 12:1 13:0.848015 14:0.631244 15:0.607201 16:0.509898 17:0.897517 18:0.625973 19:0.586855 
1 1:0.5 2:0.34282 3:0.404296 4:0.290489 5:0.275186 6:0.314348 7:1 8:1 9:1 10:1 11:1 12:1 13:0.302599 14:0.242572 15:0.365251 16:0.423699 17:0.696452 18:0.585695 19:0.556182 
1 1:0.5 2:0.412797 3:0.467727 4:1 5:0.306054 6:0.315587 7:1 8:1 9:1 10:1 11:1 12:1 13:1 14:0.396563 15:0.421002 16:0.66223 17:0.525952 18:0.579666 19:0.555939 
1 1:0.5 2:0.588281 3:0.626795 4:1 5:0.318774 6:0.320168 7:1 8:1 9:1 10:1 11:1 12:1 13:1 14:0.406641 15:0.398517 16:0.66223 17:0.621789 18:0.596002 19:0.553325 
1 1:0.5 2:1 3:1 4:0.55034 5:0.510248 6:0.500313 7:1 8:1 9:1 10:1 11:1 12:1 13:0.639003 14:0.612055 15:0.556207 16:0.619322 17:0.818321 18:0.648757 19:0.550461 
-1 1:0.5 2:0.733594 3:0.758515 4:0.44966 5:0.438328 6:0.43867 7:1 8:1 9:1 10:1 11:1 12:1 13:0.443155 14:0.383214 15:0.377979 16:0.45292 17:0.783687 18:0.573398 19:0.545989 
-1 1:0.5 2:0.94477 3:0.949936 4:0.709511 5:0.256993 6:0.253887 7:1 8:1 9:1 10:1 11:1 12:1 13:0.777036 14:0.250915 15:0.237812 16:0.637149 17:0.722067 18:0.602528 19:0.503529 
1 1:0.5 2:0.692905 3:0.721632 4:0.55034 5:0.146472 6:0.147549 7:1 8:1 9:1 10:1 11:1 12:1 13:0.639003 14:0.177262 15:0.17658 16:0.619322 17:0.576103 18:0.552424 19:0.482743 
-0.9973026614712378 1:0.5 2:0.867842 3:0.880205 4:0.55034 5:0.14947 6:0.148712 7:1 8:1 9:1 10:1 11:1 12:1 13:0.639003 14:0.151681 15:0.147464 16:0.619322 17:0.621388 18:0.555708 19:0.457439 
1 1:1 2:0.914219 3:1 4:0.830075 5:0.557418 6:0.534914 7:1 8:1 9:1 10:1 11:1 12:1 13:0.964962 14:0.526656 15:0.485744 16:1 17:1 18:1 19:1 
1 1:0.5 2:0.75524 3:0.7726 4:1 5:0.491629 6:0.468988 7:1 8:1 9:1 10:1 11:1 12:1 13:1 14:0.484302 15:0.443621 16:0.646583 17:0.931601 18:0.75367 19:0.824963 
-1 1:0.5 2:0.310376 3:0.365832 4:0.415037 5:0.468502 6:0.48075 7:1 8:1 9:1 10:1 11:1 12:1 13:0.538276 14:0.47819 15:0.498204 16:0.585385 17:0.673738 18:0.700026 19:0.773888 
-1 1:0.5 2:0.341591 3:0.394374 4:0.415037 5:0.384013 6:0.3867 7:1 8:1 9:1 10:1 11:1 12:1 13:0.538276 14:0.39327 15:0.396164 16:0.585385 17:0.657908 18:0.676917 19:0.765431 
-0.3267456141743824 1:0.5 2:0.284402 3:0.342082 4:0.263034 5:0.269504 6:0.282334 7:1 8:1 9:1 10:1 11:1 12:1 13:0.377319 14:0.277271 15:0.298832 16:0.556759 17:0.629797 18:0.668608 19:0.761546 
-1 1:0.5 2:0.405849 3:0.453129 4:0.415037 5:0.534398 6:0.522801 7:1 8:1 9:1 10:1 11:1 12:1 13:0.538276 14:0.544035 15:0.521656 16:0.585385 17:0.684235 18:0.681979 19:0.760105 
-1 1:0.5 2:0.374121 3:0.424118 4:0.584963 5:0.41267 6:0.409391 7:1 8:1 9:1 10:1 11:1 12:1 13:0.692013 14:0.422137 15:0.414046 16:0.608048 17:0.663633 18:0.672758 19:0.755624 
-1 1:0.5 2:0.23192 3:0.294095 4:0.584963 5:0.27674 6:0.310261 7:1 8:1 9:1 10:1 11:1 12:1 13:0.692013 14:0.284633 15:0.341141 16:0.608048 17:0.631898 18:0.687173 19:0.749639 
-1 1:0.5 2:0.251873 3:0.312339 4:0.415037 5:0.184224 6:0.200918 7:1 8:1 9:1 10:1 11:1 12:1 13:0.538276 14:0.190189 15:0.218022 16:0.585385 17:0.599678 18:0.652144 19:0.74408 
-1 1:0.5 2:0.331999 3:0.385604 4:0.415037 5:0.279376 6:0.283242 7:1 8:1 9:1 10:1 11:1 12:1 13:0.538276 14:0.287313 15:0.292402 16:0.585385 17:0.632649 18:0.657293 19:0.743994 
-1 1:0.5 2:0.341591 3:0.394374 4:0.584963 5:0.289745 6:0.292397 7:1 8:1 9:1 10:1 11:1 12:1 13:0.692013 14:0.297852 15:0.300529 16:0.608048 17:0.635539 18:0.657154 19:0.742258 
-1 1:0.5 2:0.525571 3:0.562599 4:0.415037 5:0.24548 6:0.23813 7:1 8:1 9:1 10:1 11:1 12:1 13:0.538276 14:0.249081 15:0.234968 16:0.585385 17:0.767415 18:0.681994 19:0.738077 
-1 1:0.5 2:0.208321 3:0.272516 4:0.415037 5:0.12905 6:0.15075 7:1 8:1 9:1 10:1 11:1 12:1 13:0.538276 14:0.133529 15:0.170286 16:0.585385 17:0.571552 18:0.641287 19:0.728542 
-1 1:0.5 2:0.411357 3:0.458166 4:0.321928 5:0.386452 6:0.390626 7:1 8:1 9:1 10:1 11:1 12:1 13:0.345617 14:0.239342 15:0.248569 16:0.398435 17:0.892129 18:0.67734 19:0.712614 
-1 1:0.5 2:0.341591 3:0.394374 4:0.263034 5:0.263442 6:0.280033 7:1 8:1 9:1 10:1 11:1 12:1 13:0.290961 14:0.170519 15:0.193302 16:0.385887 17:0.868571 18:0.67187 19:0.712393 
-0.1154389437870827 1:0.5 2:0.421718 3:0.467639 4:0.263034 5:0.339756 6:0.341326 7:1 8:1 9:1 10:1 11:1 12:1 13:0.290961 14:0.209498 15:0.215169 16:0.385887 17:0.866041 18:0.658358 19:0.694631 
-1 1:0.5 2:0.321639 3:0.37613 4:0.415037 5:0.126922 6:0.129783 7:1 8:1 9:1 10:1 11:1 12:1 13:0.538276 14:0.131338 15:0.135319 16:0.585385 17:0.570239 18:0.604872 19:0.664653 
-1 1:0.5 2:0.711005 3:0.732153 4:1 5:0.272247 6:0.258676 7:1 8:1 9:1 10:1 11:1 12:1 13:1 14:0.277157 15:0.251797 16:0.646583 17:0.760619 18:0.64629 19:0.635289 
0.1415289469463715 1:0 2:0.50636 3:0.462997 4:0 5:0.359379 6:0.336407 7:1 8:1 9:1 10:1 11:1 12:1 13:0 14:0.320477 15:0.284104 16:0 17:0.961493 18:0.428202 19:0.550656 
1 1:0 2:0.516322 3:0.472106 4:0 5:0.149824 6:0.140399 7:1 8:1 9:1 10:1 11:1 12:1 13:0 14:0.129117 15:0.114584 16:0 17:0.832517 18:0.370836 19:0.521244 
-0.4246494760795894 1:0.63093 2:0.441039 3:0.497061 4:0.55034 5:0.11891 6:0.128358 7:1 8:1 9:1 10:1 11:1 12:1 13:0.637519 14:0.264139 15:0.300661 16:0.933908 17:0.750968 18:1 19:1 
-1 1:0.63093 2:0.429642 3:0.486807 4:0.709511 5:0.0403672 6:0.0445546 7:1 8:1 9:1 10:1 11:1 12:1 13:0.775952 14:0.0823605 15:0.0992722 16:0.961373 17:0.631398 18:0.880704 19:0.807597 
1 1:0.63093 2:1 3:1 4:1 5:0.0902295 6:0.0909501 7:1 8:1 9:1 10:1 11:1 12:1 13:1 14:0.14971 15:0.150607 16:1 17:0.792883 18:0.921763 19:0.786978 
1 1:0.63093 2:0.167084 3:0.250563 4:0.380182 5:0.0163904 6:0.0268775 7:1 8:1 9:1 10:1 11:1 12:1 13:0.472546 14:0.0283267 15:0.0745791 16:0.895139 17:0.46389 18:0.828233 19:0.740052 
1 1:0.315465 2:0.52018 3:0.518157 4:0.5 5:0.0751399 6:0.0780984 7:1 8:1 9:1 10:1 11:1 12:1 13:0.413565 14:0.135708 15:0.141945 16:0.368584 17:0.760346 18:0.639887 19:0.703833 
-0.6153800150383524 1:0.63093 2:0.311053 3:0.380103 4:0.709511 5:0.0381393 6:0.0434542 7:1 8:1 9:1 10:1 11:1 12:1 13:0.775952 14:0.0575702 15:0.0805705 16:0.961373 17:0.551696 18:0.845587 19:0.695988 
1 1:0.63093 2:0.633044 3:0.669822 4:0.709511 5:0.0523068 6:0.0541405 7:1 8:1 9:1 10:1 11:1 12:1 13:0.775952 14:0.074755 15:0.0821724 16:0.961373 17:0.62121 18:0.838545 19:0.650386 
1 1:0.315465 2:0.376211 3:0.388618 4:0.27517 5:0.0331548 6:0.0359831 7:1 8:1 9:1 10:1 11:1 12:1 13:0.25446 14:0.0549918 15:0.0629777 16:0.33535 17:0.623683 18:0.554174 19:0.568994 
1 1:0 2:0.399327 3:0.359304 4:0 5:0.101249 6:0.0997936 7:1 8:1 9:1 10:1 11:1 12:1 13:0 14:0.178461 15:0.16963 16:0 17:0.832868 18:0.491411 19:0.541684 
1 1:0 2:0.407792 3:0.366921 4:0 5:0.0905728 6:0.0894216 7:1 8:1 9:1 10:1 11:1 12:1 13:0 14:0.16253 15:0.154748 16:0 17:0.803524 18:0.47427 19:0.538185 
1 1:0 2:0.452758 3:0.40738 4:0 5:0.106106 6:0.104656 7:1 8:1 9:1 10:1 11:1 12:1 13:0 14:0.165156 15:0.157095 16:0 17:0.808745 18:0.477254 19:0.528359 
1 1:0.5 2:0.540775 3:0.535303 4:0.5 5:0.570309 6:0.546594 7:1 8:1 9:1 10:1 11:1 12:1 13:0.598311 14:0.440095 15:0.422045 16:0.648712 17:0.974374 18:0.96206 19:1 
1 1:0.5 2:0.452079 3:0.45851 4:0.5 5:0.250439 6:0.240952 7:1 8:1 9:1 10:1 11:1 12:1 13:0.598311 14:0.246518 15:0.233437 16:0.648712 17:0.812553 18:0.844961 19:0.894315 
1 1:1 2:1 3:1 4:1 5:0.413082 6:0.383255 7:1 8:1 9:1 10:1 11:1 12:1 13:1 14:0.286778 15:0.258291 16:1 17:0.936637 18:1 19:0.848599 
1 1:0 2:0.554927 3:0.480452 4:0 5:0.282528 6:0.258422 7:1 8:1 9:1 10:1 11:1 12:1 13:0 14:0.187005 15:0.165023 16:0 17:0.887646 18:0.492445 19:0.60462 
1 1:0 2:0.788512 3:0.682688 4:0 5:0.162514 6:0.149045 7:1 8:1 9:1 10:1 11:1 12:1 13:0 14:0.115166 15:0.101898 16:0 17:0.81824 18:0.454125 19:0.60169 
1 1:0 2:0.380309 3:0.329269 4:0 5:0.594661 6:0.537366 7:1 8:1 9:1 10:1 11:1 12:1 13:0 14:0.432356 15:0.377042 16:0 17:0.982519 18:0.544217 19:0.579599 
1 1:0 2:0.359923 3:0.311619 4:0 5:0.270218 6:0.246457 7:1 8:1 9:1 10:1 11:1 12:1 13:0 14:0.187853 15:0.165302 16:0 17:0.882598 18:0.489443 19:0.565409 
1 1:0 2:0.437428 3:0.378722 4:0 5:0.283835 6:0.258438 7:1 8:1 9:1 10:1 11:1 12:1 13:0 14:0.157369 15:0.138241 16:0 17:0.878422 18:0.487005 19:0.564095 
1 1:0 2:0.302804 3:0.262166 4:0 5:0.236314 6:0.214844 7:1 8:1 9:1 10:1 11:1 12:1 13:0 14:0.193077 15:0.169364 16:0 17:0.858732 18:0.475979 19:0.547649 
1 1:0 2:0.302804 3:0.262166 4:0 5:0.716549 6:0.635531 7:1 8:1 9:1 10:1 11:1 12:1 13:0 14:0.572666 15:0.490532 16:0 17:1 18:0.552582 19:0.547649 
1 1:0 2:0.334972 3:0.290016 4:0 5:0.147634 6:0.134783 7:1 8:1 9:1 10:1 11:1 12:1 13:0 14:0.110794 15:0.0975867 16:0 17:0.805157 18:0.446549 19:0.54116 
1 1:0 2:0.359923 3:0.311619 4:0 5:0.0877992 6:0.0803425 7:1 8:1 9:1 10:1 11:1 12:1 13:0 14:0.0613816 15:0.0541887 16:0 17:0.741052 18:0.411145 19:0.510399 
1 1:0 2:0.232515 3:0.20131 4:0 5:0.165966 6:0.151172 7:1 8:1 9:1 10:1 11:1 12:1 13:0 14:0.146168 15:0.128454 16:0 17:0.804334 18:0.445935 19:0.501789 
1 1:0 2:0.277853 3:0.240563 4:0 5:0.358964 6:0.325279 7:1 8:1 9:1 10:1 11:1 12:1 13:0 14:0.222967 15:0.194939 16:0 17:0.916012 18:0.50752 19:0.499555 
1 1:0 2:0.245685 3:0.212713 4:0 5:0.111687 6:0.102131 7:1 8:1 9:1 10:1 11:1 12:1 13:0 14:0.0780238 15:0.0688339 16:0 17:0.771104 18:0.42777 19:0.479658 
1 1:0 2:0.232515 3:0.20131 4:0 5:0.0760239 6:0.0695908 7:1 8:1 9:1 10:1 11:1 12:1 13:0 14:0.0672947 15:0.0594291 16:0 17:0.708424 18:0.393066 19:0.473228 
1 1:0 2:0.200348 3:0.17346 4:0 5:0.0852939 6:0.077992 7:1 8:1 9:1 10:1 11:1 12:1 13:0 14:0.0701923 15:0.0619214 16:0 17:0.731584 18:0.405842 19:0.456064 
1 1:0 2:0.334972 3:0.290016 4:0 5:0.0454898 6:0.0417003 7:1 8:1 9:1 10:1 11:1 12:1 13:0 14:0.0342727 15:0.03031 16:0 17:0.659686 18:0.366123 19:0.454256 
1 1:0 2:0.400696 3:0.34692 4:0 5:0.0316103 6:0.0289843 7:1 8:1 9:1 10:1 11:1 12:1 13:0 14:0.0275141 15:0.024339 16:0 17:0.607865 18:0.337381 19:0.434875 
1 1:0 2:0.466764 3:0.404121 4:0 5:0.0541696 6:0.0496169 7:1 8:1 9:1 10:1 11:1 12:1 13:0 14:0.0277797 15:0.024548 16:0 17:0.661329 18:0.366982 19:0.420627 
1 1:0 2:0.200348 3:0.17346 4:0 5:0.253535 6:0.229247 7:1 8:1 9:1 10:1 11:1 12:1 13:0 14:0.145414 15:0.126855 16:0 17:0.866758 18:0.480043 19:0.407772 
1 1:0 2:0.200348 3:0.17346 4:0 5:0.107194 6:0.0977356 7:1 8:1 9:1 10:1 11:1 12:1 13:0 14:0.0616144 15:0.0541977 16:0 17:0.757807 18:0.420188 19:0.407772 
1 1:0 2:0.15501 3:0.134207 4:0 5:0.0724046 6:0.0662847 7:1 8:1 9:1 10:1 11:1 12:1 13:0 14:0.0506433 15:0.0447284 16:0 17:0.717111 18:0.397894 19:0.38367 
1 1:0 2:0.15501 3:0.134207 4:0 5:0.0753856 6:0.0688588 7:1 8:1 9:1 10:1 11:1 12:1 13:0 14:0.0527234 15:0.0464614 16:0 17:0.72211 18:0.400513 19:0.38367 
1 1:0 2:0.15501 3:0.134207 4:0 5:0.073475 6:0.0671211 7:1 8:1 9:1 10:1 11:1 12:1 13:0 14:0.0513903 15:0.0452915 16:0 17:0.718929 18:0.398755 19:0.38367 
1 1:0 2:0.15501 3:0.134207 4:0 5:0.0851663 6:0.0768136 7:1 8:1 9:1 10:1 11:1 12:1 13:0 14:0.0595458 15:0.0518148 16:0 17:0.737262 18:0.408044 19:0.38367 
1 1:0 2:0.15501 3:0.134207 4:0 5:0.26257 6:0.235544 7:1 8:1 9:1 10:1 11:1 12:1 13:0 14:0.182579 15:0.15804 16:0 17:0.878952 18:0.486252 19:0.38367 
1 1:0 2:0.200348 3:0.17346 4:0 5:0.0529893 6:0.04793 7:1 8:1 9:1 10:1 11:1 12:1 13:0 14:0.0304825 15:0.0266003 16:0 17:0.669852 18:0.370848 19:0.36493 
1 1:0 2:0.15501 3:0.134207 4:0 5:0.0428717 6:0.0391848 7:1 8:1 9:1 10:1 11:1 12:1 13:0 14:0.0300142 15:0.026466 16:0 17:0.652815 18:0.362113 19:0.355097 
-0.009189892759382472 1:0.386853 2:0.344528 3:0.367837 4:0.5 5:0.121728 6:0.127442 7:1 8:1 9:1 10:1 11:1 12:1 13:0.747669 14:0.369394 15:0.317542 16:0.930392 17:0.728371 18:0.785327 19:0.887883 
-0.01204985363144801 1:0.386853 2:0.360451 3:0.381373 4:0.354756 5:0.0728816 6:0.0756803 7:1 8:1 9:1 10:1 11:1 12:1 13:0.585208 14:0.222335 15:0.188827 16:0.899151 17:0.691142 18:0.74262 19:0.797505 
-1 1:0.773706 2:0.512119 3:0.585266 4:1 5:0.420034 6:0.471928 7:1 8:1 9:1 10:1 11:1 12:1 13:1 14:0.360466 15:0.396211 16:1 17:0.601089 18:0.828175 19:0.747724 
-0.4350934084830817 1:0.773706 2:0.557497 3:0.62384 4:0.380182 5:0.510368 6:0.544734 7:1 8:1 9:1 10:1 11:1 12:1 13:0.43261 14:0.422785 15:0.421791 16:0.827786 17:0.601118 18:0.813792 19:0.747035 
-1 1:0.773706 2:0.60586 3:0.664952 4:0.709511 5:0.370499 6:0.397025 7:1 8:1 9:1 10:1 11:1 12:1 13:0.749634 14:0.315212 15:0.311601 16:0.936377 17:0.580617 18:0.777026 19:0.746029 
-0.03142194775770663 1:0.773706 2:0.584607 3:0.646886 4:0.380182 5:0.285814 6:0.308238 7:1 8:1 9:1 10:1 11:1 12:1 13:0.43261 14:0.244664 15:0.246314 16:0.827786 17:0.545617 18:0.747269 19:0.730329 
-0.02993164520246848 1:0.773706 2:0.279539 3:0.387555 4:0.329329 5:0.524984 6:0.713084 7:1 8:1 9:1 10:1 11:1 12:1 13:0.379594 14:0.452969 15:0.763242 16:0.803681 17:0.633652 18:0.936954 19:0.69665 
-1 1:0.773706 2:0.404323 3:0.493631 4:0.709511 5:0.1075 6:0.128192 7:1 8:1 9:1 10:1 11:1 12:1 13:0.749634 14:0.089094 15:0.11236 16:0.936377 17:0.385595 18:0.645632 19:0.661826 
-0.0212967164459021 1:0.773706 2:0.784118 3:0.816485 4:0.380182 5:0.293621 6:0.299899 7:1 8:1 9:1 10:1 11:1 12:1 13:0.43261 14:0.255839 15:0.224038 16:0.827786 17:0.549125 18:0.689672 19:0.654028 
-1 1:0 2:0.632277 3:0.537482 4:0 5:0.104751 6:0.102413 7:1 8:1 9:1 10:1 11:1 12:1 13:0 14:0.137617 15:0.107216 16:0 17:0.964604 18:0.490292 19:0.631232 
1 1:0.773706 2:1 3:1 4:1 5:0.539794 6:0.537285 7:1 8:1 9:1 10:1 11:1 12:1 13:1 14:0.451624 15:0.369596 16:1 17:0.622501 18:0.701403 19:0.614858 
-1 1:0 2:0.497701 3:0.423082 4:0 5:0.146378 6:0.142919 7:1 8:1 9:1 10:1 11:1 12:1 13:0 14:0.219224 15:0.170566 16:0 17:0.885368 18:0.449873 19:0.571215 
-0.1535444657784205 1:0 2:0.53108 3:0.451457 4:0 5:0.0874936 6:0.0855145 7:1 8:1 9:1 10:1 11:1 12:1 13:0 14:0.119766 15:0.093279 16:0 17:0.803221 18:0.40821 19:0.52874 
-0.002246364154925088 1:0.386853 2:0.632277 3:0.612445 4:0.5 5:0.500365 6:0.509926 7:1 8:1 9:1 10:1 11:1 12:1 13:0.509348 14:0.431721 15:0.377642 16:0.513371 17:0.626723 18:0.573314 19:0.528691 
-0.2204311112870486 1:0.386853 2:0.672792 3:0.646886 4:0.354756 5:0.398842 6:0.403181 7:1 8:1 9:1 10:1 11:1 12:1 13:0.382499 14:0.350299 15:0.299561 16:0.481549 17:0.589538 18:0.538545 19:0.514535 
-0.6842518821966993 1:0.386853 2:0.64246 3:0.621102 4:0.27517 5:1 6:1 7:1 8:1 9:1 10:1 11:1 12:1 13:0.294276 14:0.824498 15:0.694724 16:0.432288 17:0.686827 18:0.605258 19:0.509567 
-1 1:1 2:0.649748 3:0.702113 4:0.817059 5:0.506917 6:0.532479 7:1 8:1 9:1 10:1 11:1 12:1 13:0.837874 14:0.505389 15:0.559642 16:0.963255 17:0.884052 18:0.934867 19:1 
-1 1:1 2:0.617231 3:0.674458 4:1 5:0.369978 6:0.39394 7:1 8:1 9:1 10:1 11:1 12:1 13:1 14:0.366438 15:0.416587 16:1 17:0.826043 18:0.895445 19:0.975578 
-1 1:1 2:0.408172 3:0.496655 4:1 5:0.251583 6:0.304454 7:1 8:1 9:1 10:1 11:1 12:1 13:1 14:0.250443 15:0.365508 16:1 17:0.758732 18:0.9108 19:0.969459 
-1 1:1 2:0.402995 3:0.492252 4:0.427125 5:0.152434 6:0.183493 7:1 8:1 9:1 10:1 11:1 12:1 13:0.464906 14:0.153024 15:0.221495 16:0.849294 17:0.664333 18:0.829121 19:0.937218 
-1 1:1 2:0.866057 3:0.886082 4:0.427125 5:0.581112 6:0.582445 7:1 8:1 9:1 10:1 11:1 12:1 13:0.464906 14:0.581233 15:0.581789 16:0.849294 17:0.905848 18:0.883241 19:0.918696 
-1 1:1 2:0.718096 3:0.760243 4:0.817059 5:0.142395 6:0.150393 7:1 8:1 9:1 10:1 11:1 12:1 13:0.837874 14:0.1423 15:0.158316 16:0.963255 17:0.792915 18:0.79545 19:0.878885 
-1 1:1 2:0.686228 3:0.733139 4:0.59841 5:0.206788 6:0.215641 7:1 8:1 9:1 10:1 11:1 12:1 13:0.633814 14:0.206362 15:0.224028 16:0.907895 17:0.723364 18:0.782072 19:0.855017 
-1 1:1 2:1 3:1 4:1 5:0.362407 6:0.360419 7:1 8:1 9:1 10:1 11:1 12:1 13:1 14:0.357091 15:0.348799 16:1 17:0.815779 18:0.762742 19:0.744532 
-1 1:0.5 2:0.570601 3:0.560046 4:0.345407 5:0.251429 6:0.258381 7:1 8:1 9:1 10:1 11:1 12:1 13:0.365124 14:0.253733 15:0.268 16:0.47445 17:0.900301 18:0.657185 19:0.74237 
-1 1:0.5 2:0.561853 3:0.552605 4:0.40853 5:0.115096 6:0.122183 7:1 8:1 9:1 10:1 11:1 12:1 13:0.423858 14:0.112674 15:0.127698 16:0.489458 17:0.827162 18:0.611817 19:0.732905 
-1 1:0.5 2:0.600577 3:0.58554 4:0.644612 5:0.231064 6:0.235956 7:1 8:1 9:1 10:1 11:1 12:1 13:0.627985 14:0.233979 15:0.242499 16:0.531539 17:0.847516 18:0.623121 19:0.711476 
-0.4986207667302101 1:0.5 2:0.52737 3:0.523278 4:0.644612 5:0.753462 6:0.779458 7:1 8:1 9:1 10:1 11:1 12:1 13:0.627985 14:0.748467 15:0.808424 16:0.531539 17:0.956582 18:0.732471 19:0.704755 
-1 1:0.5 2:0.508153 3:0.506934 4:0.5 5:0.472986 6:0.490212 7:1 8:1 9:1 10:1 11:1 12:1 13:0.505646 14:0.463878 15:0.502874 16:0.507835 17:0.854397 18:0.669539 19:0.696324 
-1 1:0.5 2:0.454411 3:0.461227 4:0.644612 5:0.197868 6:0.21172 7:1 8:1 9:1 10:1 11:1 12:1 13:0.627985 14:0.197017 15:0.226427 16:0.531539 17:0.71595 18:0.588351 19:0.676221 
-1 1:0.5 2:0.726609 3:0.692729 4:0.644612 5:0.167739 6:0.169518 7:1 8:1 9:1 10:1 11:1 12:1 13:0.627985 14:0.169037 15:0.171109 16:0.531539 17:0.800733 18:0.578812 19:0.674817 
-1 1:0.5 2:0.742093 3:0.705898 4:0.5 5:0.746116 6:0.738209 7:1 8:1 9:1 10:1 11:1 12:1 13:0.505646 14:0.758999 15:0.734826 16:0.507835 17:0.849306 18:0.628001 19:0.671513 
-1 1:0.5 2:0.531272 3:0.526597 4:0.345407 5:0.10705 6:0.112216 7:1 8:1 9:1 10:1 11:1 12:1 13:0.365124 14:0.107564 15:0.118164 16:0.47445 17:0.721994 18:0.556477 19:0.660792 
-1 1:0.5 2:0.588935 3:0.575639 4:0.40853 5:0.109501 6:0.113379 7:1 8:1 9:1 10:1 11:1 12:1 13:0.423858 14:0.110065 15:0.117632 16:0.489458 17:0.725534 18:0.550922 19:0.656449 
-1 1:0.5 2:0.512682 3:0.510786 4:0.644612 5:0.334319 6:0.341779 7:1 8:1 9:1 10:1 11:1 12:1 13:0.627985 14:0.340888 15:0.354437 16:0.531539 17:0.722063 18:0.584734 19:0.654789 
-0.8679036051788174 1:0.5 2:0.607081 3:0.591072 4:0.5 5:0.403047 6:0.404636 7:1 8:1 9:1 10:1 11:1 12:1 13:0.505646 14:0.410882 15:0.410833 16:0.507835 17:0.75032 18:0.586031 19:0.652911 
1 1:0.5 2:0.866877 3:0.812026 4:0.644612 5:0.403529 6:0.399704 7:1 8:1 9:1 10:1 11:1 12:1 13:0.627985 14:0.407088 15:0.394088 16:0.531539 17:0.823402 18:0.589701 19:0.635569 
-1 1:0.5 2:0.611239 3:0.594608 4:0.5 5:0.313108 6:0.314331 7:1 8:1 9:1 10:1 11:1 12:1 13:0.494354 14:0.303182 15:0.303221 16:0.492165 17:0.702671 18:0.546559 19:0.614797 
1 1:1 2:0.669145 3:0.816831 4:0.55034 5:0.51246 6:0.521006 7:1 8:1 9:1 10:1 11:1 12:1 13:0.649586 14:0.527457 15:0.533471 16:0.944941 17:0.749303 18:0.946198 19:1 
-1 1:1 2:0.5 3:0.656655 4:0.44966 5:0.175027 6:0.194365 7:1 8:1 9:1 10:1 11:1 12:1 13:0.555853 14:0.184 15:0.211992 16:0.927034 17:0.670157 18:0.886649 19:0.967537 
-1 1:1 2:0.449122 3:0.608475 4:1 5:0.144203 6:0.167849 7:1 8:1 9:1 10:1 11:1 12:1 13:1 14:0.151897 15:0.186879 16:1 17:0.655954 18:0.880437 19:0.952844 
-1 1:1 2:0.386853 3:0.549508 4:0.709511 5:0.20497 6:0.25253 7:1 8:1 9:1 10:1 11:1 12:1 13:0.784534 14:0.215064 15:0.288121 16:0.967914 17:0.681747 18:0.920007 19:0.930313 
-1 1:1 2:0.642549 3:0.791644 4:1 5:0.114172 6:0.118425 7:1 8:1 9:1 10:1 11:1 12:1 13:1 14:0.120497 15:0.124556 16:1 17:0.638849 18:0.828907 19:0.89155 
-1 1:1 2:0.306574 3:0.473486 4:1 5:0.183091 6:0.25408 7:1 8:1 9:1 10:1 11:1 12:1 13:1 14:0.192377 15:0.30311 16:1 17:0.673461 18:0.927326 19:0.891397 
-1 1:1 2:0.543017 3:0.69739 4:1 5:0.0793584 6:0.086422 7:1 8:1 9:1 10:1 11:1 12:1 13:1 14:0.0839442 15:0.093426 16:1 17:0.612233 18:0.815792 19:0.873094 
-0.008913237619649118 1:1 2:0.193426 3:0.366339 4:1 5:0.174279 6:0.318967 7:1 8:1 9:1 10:1 11:1 12:1 13:1 14:0.183221 15:0.411338 16:1 17:0.669842 18:0.950525 19:0.808006 
-1 1:1 2:0.449122 3:0.608475 4:0.709511 5:0.0325085 6:0.0379303 7:1 8:1 9:1 10:1 11:1 12:1 13:0.784534 14:0.0344925 15:0.0424814 16:0.967914 17:0.547026 18:0.759899 19:0.74862 
-1 1:0 2:0.580279 3:0.549508 4:0 5:0.136574 6:0.12712 7:1 8:1 9:1 10:1 11:1 12:1 13:0 14:0.124468 15:0.10842 16:0 17:0.846547 18:0.469152 19:0.564254 
1 1:0 2:1 3:0.946971 4:0 5:0.100861 6:0.0941432 7:1 8:1 9:1 10:1 11:1 12:1 13:0 14:0.103327 15:0.0902573 16:0 17:0.726552 18:0.402846 19:0.563788 
0.01904837929758441 1:0 2:0.613147 3:0.580633 4:0 5:0.344869 6:0.318967 7:1 8:1 9:1 10:1 11:1 12:1 13:0 14:0.263537 15:0.228122 16:0 17:1 18:0.553699 19:0.562477 
0.08295848756726794 1:0 2:0.613147 3:0.580633 4:0 5:0.125345 6:0.116709 7:1 8:1 9:1 10:1 11:1 12:1 13:0 14:0.0962963 15:0.0839088 16:0 17:0.853177 18:0.472853 19:0.562449 
1 1:0 2:0.613147 3:0.580633 4:0 5:0.0925846 6:0.086292 7:1 8:1 9:1 10:1 11:1 12:1 13:0 14:0.071185 15:0.0620897 16:0 17:0.809646 18:0.448803 19:0.544944 
1 1:0 2:0.693426 3:0.656655 4:0 5:0.0804051 6:0.0750051 7:1 8:1 9:1 10:1 11:1 12:1 13:0 14:0.0571742 15:0.049912 16:0 17:0.78596 18:0.435741 19:0.537626 
-1 1:0.5 2:0.364422 3:0.37659 4:0.321928 5:0.253374 6:0.259274 7:1 8:1 9:1 10:1 11:1 12:1 13:0.435998 14:0.235533 15:0.230952 16:0.637469 17:0.855174 18:0.895536 19:1 
1 1:1 2:0.556341 3:0.596158 4:0.38529 5:0.221949 6:0.224336 7:1 8:1 9:1 10:1 11:1 12:1 13:0.468278 14:0.129963 15:0.126842 16:0.9243 17:0.831323 18:1 19:0.948866 
0.08474044404434479 1:1 2:1 3:1 4:0.643856 5:0.347661 6:0.34005 7:1 8:1 9:1 10:1 11:1 12:1 13:0.726661 14:0.219518 15:0.197428 16:1 17:0.94463 18:0.96412 19:0.84953 
-1 1:0.5 2:0.505138 3:0.504676 4:0.584963 5:0.210062 6:0.207805 7:1 8:1 9:1 10:1 11:1 12:1 13:0.686708 14:0.206559 15:0.189162 16:0.684397 17:0.777962 18:0.796805 19:0.825294 
0.5744005231873817 1:1 2:0.759118 3:0.780736 4:0.38529 5:0.243614 6:0.240659 7:1 8:1 9:1 10:1 11:1 12:1 13:0.468278 14:0.143589 15:0.132519 16:0.9243 17:0.850292 18:0.950047 19:0.823095 
1 1:0.5 2:0.622997 3:0.611959 4:0.415037 5:0.497976 6:0.487873 7:1 8:1 9:1 10:1 11:1 12:1 13:0.531586 14:0.357484 15:0.323585 16:0.656957 17:0.860013 18:0.852643 19:0.78015 
